<?xml version="1.0"?>
<opencv_storage>
<stage11>
  <maxWeakCount>8</maxWeakCount>
  <stageThreshold>-7.0275223255157471e-01</stageThreshold>
  <weakClassifiers>
    <_>
      <internalNodes>
        0 -1 48859 -6.6401594085618854e-04</internalNodes>
      <leafValues>
        -6.9351667165756226e-01 5.4315537214279175e-01</leafValues></_>
    <_>
      <internalNodes>
        0 -1 58276 1.0454216971993446e-02</internalNodes>
      <leafValues>
        -5.3391629457473755e-01 3.7007683515548706e-01</leafValues></_>
    <_>
      <internalNodes>
        0 -1 52144 7.1092345751821995e-03</internalNodes>
      <leafValues>
        -3.5020300745964050e-01 5.5954802036285400e-01</leafValues></_>
    <_>
      <internalNodes>
        0 -1 57415 4.4833756983280182e-03</internalNodes>
      <leafValues>
        2.5031447410583496e-01 -8.5768234729766846e-01</leafValues></_>
    <_>
      <internalNodes>
        0 -1 44357 5.5909114889800549e-03</internalNodes>
      <leafValues>
        -9.3075346946716309e-01 1.3716679811477661e-01</leafValues></_>
    <_>
      <internalNodes>
        0 -1 33055 1.0436785407364368e-02</internalNodes>
      <leafValues>
        -7.3742252588272095e-01 2.0179881155490875e-01</leafValues></_>
    <_>
      <internalNodes>
        0 -1 56922 -4.2306818068027496e-03</internalNodes>
      <leafValues>
        -8.8598871231079102e-01 1.7119324207305908e-01</leafValues></_>
    <_>
      <internalNodes>
        0 -1 33279 2.8992544859647751e-02</internalNodes>
      <leafValues>
        1.3892409205436707e-01 -9.2364156246185303e-01</leafValues></_></weakClassifiers></stage11>
</opencv_storage>
