<?xml version="1.0"?>
<opencv_storage>
<stage13>
  <maxWeakCount>9</maxWeakCount>
  <stageThreshold>-8.2510870695114136e-01</stageThreshold>
  <weakClassifiers>
    <_>
      <internalNodes>
        0 -1 53496 4.5202886685729027e-03</internalNodes>
      <leafValues>
        -6.1384332180023193e-01 5.4549163579940796e-01</leafValues></_>
    <_>
      <internalNodes>
        0 -1 65289 -3.3041145652532578e-03</internalNodes>
      <leafValues>
        3.7748458981513977e-01 -5.5668038129806519e-01</leafValues></_>
    <_>
      <internalNodes>
        0 -1 33671 6.0515487566590309e-03</internalNodes>
      <leafValues>
        -8.3731454610824585e-01 2.4320603907108307e-01</leafValues></_>
    <_>
      <internalNodes>
        0 -1 52814 -8.4052570164203644e-03</internalNodes>
      <leafValues>
        5.5345189571380615e-01 -3.7504690885543823e-01</leafValues></_>
    <_>
      <internalNodes>
        0 -1 48349 -1.0285820811986923e-02</internalNodes>
      <leafValues>
        -9.3933427333831787e-01 2.1412818133831024e-01</leafValues></_>
    <_>
      <internalNodes>
        0 -1 49269 9.0820621699094772e-03</internalNodes>
      <leafValues>
        -6.0013765096664429e-01 3.3083724975585938e-01</leafValues></_>
    <_>
      <internalNodes>
        0 -1 60363 -4.6634259633719921e-03</internalNodes>
      <leafValues>
        2.8874778747558594e-01 -5.8575898408889771e-01</leafValues></_>
    <_>
      <internalNodes>
        0 -1 63608 -2.4184957146644592e-03</internalNodes>
      <leafValues>
        -8.9954388141632080e-01 1.4598931372165680e-01</leafValues></_>
    <_>
      <internalNodes>
        0 -1 36272 -8.0173660535365343e-04</internalNodes>
      <leafValues>
        4.4358652830123901e-01 -3.8860234618186951e-01</leafValues></_></weakClassifiers></stage13>
</opencv_storage>
