<?xml version="1.0"?>
<opencv_storage>
<stage8>
  <maxWeakCount>5</maxWeakCount>
  <stageThreshold>-5.6991744041442871e-01</stageThreshold>
  <weakClassifiers>
    <_>
      <internalNodes>
        0 -1 61072 8.8570285588502884e-03</internalNodes>
      <leafValues>
        -8.4842103719711304e-01 5.5564355850219727e-01</leafValues></_>
    <_>
      <internalNodes>
        0 -1 52151 -1.6026975354179740e-03</internalNodes>
      <leafValues>
        3.5778012871742249e-01 -8.1736403703689575e-01</leafValues></_>
    <_>
      <internalNodes>
        0 -1 60470 3.4844169858843088e-03</internalNodes>
      <leafValues>
        -5.2170431613922119e-01 5.0330042839050293e-01</leafValues></_>
    <_>
      <internalNodes>
        0 -1 61932 5.7825585827231407e-04</internalNodes>
      <leafValues>
        -6.8824064731597900e-01 3.1943622231483459e-01</leafValues></_>
    <_>
      <internalNodes>
        0 -1 46195 1.2618051841855049e-02</internalNodes>
      <leafValues>
        -7.5560355186462402e-01 2.7313092350959778e-01</leafValues></_></weakClassifiers></stage8>
</opencv_storage>
