<?xml version="1.0"?>
<opencv_storage>
<stage5>
  <maxWeakCount>5</maxWeakCount>
  <stageThreshold>-5.5370998382568359e-01</stageThreshold>
  <weakClassifiers>
    <_>
      <internalNodes>
        0 -1 48800 3.7211733870208263e-03</internalNodes>
      <leafValues>
        -8.7596899271011353e-01 5.8454108238220215e-01</leafValues></_>
    <_>
      <internalNodes>
        0 -1 48285 1.8741805106401443e-02</internalNodes>
      <leafValues>
        3.0733099579811096e-01 -8.8900649547576904e-01</leafValues></_>
    <_>
      <internalNodes>
        0 -1 11521 1.7887809872627258e-01</internalNodes>
      <leafValues>
        -7.6202398538589478e-01 3.2554191350936890e-01</leafValues></_>
    <_>
      <internalNodes>
        0 -1 52225 4.6591232530772686e-03</internalNodes>
      <leafValues>
        -5.0882124900817871e-01 4.7796019911766052e-01</leafValues></_>
    <_>
      <internalNodes>
        0 -1 68345 1.4490752946585417e-03</internalNodes>
      <leafValues>
        2.9899179935455322e-01 -9.1465860605239868e-01</leafValues></_></weakClassifiers></stage5>
</opencv_storage>
