<?xml version="1.0"?>
<opencv_storage>
<stage14>
  <maxWeakCount>7</maxWeakCount>
  <stageThreshold>-8.4424954652786255e-01</stageThreshold>
  <weakClassifiers>
    <_>
      <internalNodes>
        0 -1 69606 -1.3379214797168970e-03</internalNodes>
      <leafValues>
        -9.8709678649902344e-01 5.2918660640716553e-01</leafValues></_>
    <_>
      <internalNodes>
        0 -1 77918 -1.5776792541146278e-02</internalNodes>
      <leafValues>
        7.6151216030120850e-01 -3.7124872207641602e-01</leafValues></_>
    <_>
      <internalNodes>
        0 -1 68229 -2.5350440409965813e-04</internalNodes>
      <leafValues>
        4.9304497241973877e-01 -7.1341043710708618e-01</leafValues></_>
    <_>
      <internalNodes>
        0 -1 13758 3.8130484521389008e-02</internalNodes>
      <leafValues>
        -5.8199125528335571e-01 5.2109575271606445e-01</leafValues></_>
    <_>
      <internalNodes>
        0 -1 58849 1.0889296978712082e-01</internalNodes>
      <leafValues>
        -3.6589670181274414e-01 8.4488058090209961e-01</leafValues></_>
    <_>
      <internalNodes>
        0 -1 36709 3.0811404576525092e-04</internalNodes>
      <leafValues>
        3.9238786697387695e-01 -7.9769814014434814e-01</leafValues></_>
    <_>
      <internalNodes>
        0 -1 46873 -8.6485996143892407e-04</internalNodes>
      <leafValues>
        -9.4193822145462036e-01 2.6672309637069702e-01</leafValues></_></weakClassifiers></stage14>
</opencv_storage>
