<?xml version="1.0"?>
<opencv_storage>
<stage6>
  <maxWeakCount>5</maxWeakCount>
  <stageThreshold>-5.6061428785324097e-01</stageThreshold>
  <weakClassifiers>
    <_>
      <internalNodes>
        0 -1 72237 -7.8937336802482605e-03</internalNodes>
      <leafValues>
        5.7979798316955566e-01 -8.2857143878936768e-01</leafValues></_>
    <_>
      <internalNodes>
        0 -1 50757 1.0647989809513092e-01</internalNodes>
      <leafValues>
        -4.6968519687652588e-01 6.8353146314620972e-01</leafValues></_>
    <_>
      <internalNodes>
        0 -1 72726 1.1093130335211754e-02</internalNodes>
      <leafValues>
        -5.7928502559661865e-01 5.9464502334594727e-01</leafValues></_>
    <_>
      <internalNodes>
        0 -1 41398 4.6753161586821079e-03</internalNodes>
      <leafValues>
        -7.4922746419906616e-01 4.9242013692855835e-01</leafValues></_>
    <_>
      <internalNodes>
        0 -1 5349 1.7077952623367310e-02</internalNodes>
      <leafValues>
        -3.2870945334434509e-01 9.1650509834289551e-01</leafValues></_></weakClassifiers></stage6>
</opencv_storage>
