<?xml version="1.0"?>
<opencv_storage>
<stage5>
  <maxWeakCount>10</maxWeakCount>
  <stageThreshold>-7.6648670434951782e-01</stageThreshold>
  <weakClassifiers>
    <_>
      <internalNodes>
        0 -1 2260 5.6185588240623474e-02</internalNodes>
      <leafValues>
        -1.6853933036327362e-01 7.3573571443557739e-01</leafValues></_>
    <_>
      <internalNodes>
        0 -1 72437 2.8683088719844818e-02</internalNodes>
      <leafValues>
        -2.5795072317123413e-01 6.8791109323501587e-01</leafValues></_>
    <_>
      <internalNodes>
        0 -1 28568 5.2325851283967495e-03</internalNodes>
      <leafValues>
        -4.6773493289947510e-01 3.9577859640121460e-01</leafValues></_>
    <_>
      <internalNodes>
        0 -1 74936 -6.8345600739121437e-03</internalNodes>
      <leafValues>
        4.8028138279914856e-01 -3.3795857429504395e-01</leafValues></_>
    <_>
      <internalNodes>
        0 -1 23617 -2.2722810506820679e-02</internalNodes>
      <leafValues>
        7.0432865619659424e-01 -2.4378652870655060e-01</leafValues></_>
    <_>
      <internalNodes>
        0 -1 30407 -2.0525336265563965e-02</internalNodes>
      <leafValues>
        5.4347646236419678e-01 -3.0298954248428345e-01</leafValues></_>
    <_>
      <internalNodes>
        0 -1 23919 -3.4095510840415955e-02</internalNodes>
      <leafValues>
        2.6932576298713684e-01 -6.0634291172027588e-01</leafValues></_>
    <_>
      <internalNodes>
        0 -1 44789 -2.7720318175852299e-03</internalNodes>
      <leafValues>
        3.5806858539581299e-01 -3.9287623763084412e-01</leafValues></_>
    <_>
      <internalNodes>
        0 -1 56920 -4.3702539987862110e-03</internalNodes>
      <leafValues>
        -8.2422304153442383e-01 1.6157770156860352e-01</leafValues></_>
    <_>
      <internalNodes>
        0 -1 49249 -1.5861254185438156e-02</internalNodes>
      <leafValues>
        2.8092953562736511e-01 -4.6572667360305786e-01</leafValues></_></weakClassifiers></stage5>
</opencv_storage>
