<?xml version="1.0"?>
<opencv_storage>
<stage2>
  <maxWeakCount>10</maxWeakCount>
  <stageThreshold>-1.4439423084259033e+00</stageThreshold>
  <weakClassifiers>
    <_>
      <internalNodes>
        0 -1 35689 -3.4672774374485016e-02</internalNodes>
      <leafValues>
        6.3370788097381592e-01 -5.2903223037719727e-01</leafValues></_>
    <_>
      <internalNodes>
        0 -1 30412 -3.7794984877109528e-02</internalNodes>
      <leafValues>
        7.3336678743362427e-01 -4.1120082139968872e-01</leafValues></_>
    <_>
      <internalNodes>
        0 -1 45585 3.1351514160633087e-02</internalNodes>
      <leafValues>
        -4.4444727897644043e-01 6.8232798576354980e-01</leafValues></_>
    <_>
      <internalNodes>
        0 -1 64984 3.2212994992733002e-02</internalNodes>
      <leafValues>
        -4.9231538176536560e-01 5.2440261840820312e-01</leafValues></_>
    <_>
      <internalNodes>
        0 -1 20395 8.0442875623703003e-03</internalNodes>
      <leafValues>
        -4.8876449465751648e-01 3.9386895298957825e-01</leafValues></_>
    <_>
      <internalNodes>
        0 -1 16275 -4.1332323104143143e-02</internalNodes>
      <leafValues>
        7.9831624031066895e-01 -2.5271469354629517e-01</leafValues></_>
    <_>
      <internalNodes>
        0 -1 46660 -4.6813558787107468e-02</internalNodes>
      <leafValues>
        7.0091277360916138e-01 -2.3118461668491364e-01</leafValues></_>
    <_>
      <internalNodes>
        0 -1 17860 3.3839950338006020e-03</internalNodes>
      <leafValues>
        -3.2469946146011353e-01 4.5126861333847046e-01</leafValues></_>
    <_>
      <internalNodes>
        0 -1 71935 7.1550287306308746e-02</internalNodes>
      <leafValues>
        -1.8600061535835266e-01 9.0225857496261597e-01</leafValues></_>
    <_>
      <internalNodes>
        0 -1 62649 6.4197927713394165e-03</internalNodes>
      <leafValues>
        -2.2707600891590118e-01 6.2421917915344238e-01</leafValues></_></weakClassifiers></stage2>
</opencv_storage>
