<?xml version="1.0"?>
<opencv_storage>
<cascade>
  <stageType>BOOST</stageType>
  <featureType>HAAR</featureType>
  <height>20</height>
  <width>20</width>
  <stageParams>
    <boostType>GAB</boostType>
    <minHitRate>9.9500000476837158e-01</minHitRate>
    <maxFalseAlarm>5.0000000000000000e-01</maxFalseAlarm>
    <weightTrimRate>9.4999999999999996e-01</weightTrimRate>
    <maxDepth>1</maxDepth>
    <maxWeakCount>100</maxWeakCount></stageParams>
  <featureParams>
    <maxCatCount>0</maxCatCount>
    <featSize>1</featSize>
    <mode>BASIC</mode></featureParams>
  <stageNum>10</stageNum>
  <stages>
    <!-- stage 0 -->
    <_>
      <maxWeakCount>5</maxWeakCount>
      <stageThreshold>-1.6177278757095337e+00</stageThreshold>
      <weakClassifiers>
        <_>
          <internalNodes>
            0 -1 35 -4.1488781571388245e-02</internalNodes>
          <leafValues>
            7.5301766395568848e-01 -7.3522460460662842e-01</leafValues></_>
        <_>
          <internalNodes>
            0 -1 20 -7.3229908943176270e-02</internalNodes>
          <leafValues>
            6.5155917406082153e-01 -6.7451590299606323e-01</leafValues></_>
        <_>
          <internalNodes>
            0 -1 12 2.4402704089879990e-02</internalNodes>
          <leafValues>
            -6.1503851413726807e-01 7.1741926670074463e-01</leafValues></_>
        <_>
          <internalNodes>
            0 -1 81 9.8028425127267838e-03</internalNodes>
          <leafValues>
            -5.5627435445785522e-01 5.3780055046081543e-01</leafValues></_>
        <_>
          <internalNodes>
            0 -1 2 7.0865690708160400e-02</internalNodes>
          <leafValues>
            -3.6913228034973145e-01 7.3228436708450317e-01</leafValues></_></weakClassifiers></_>
    <!-- stage 1 -->
    <_>
      <maxWeakCount>6</maxWeakCount>
      <stageThreshold>-1.2381787300109863e+00</stageThreshold>
      <weakClassifiers>
        <_>
          <internalNodes>
            0 -1 78 3.6146469414234161e-02</internalNodes>
          <leafValues>
            -5.1133501529693604e-01 7.5093400478363037e-01</leafValues></_>
        <_>
          <internalNodes>
            0 -1 31 4.3896529823541641e-02</internalNodes>
          <leafValues>
            -5.1965862512588501e-01 7.4975395202636719e-01</leafValues></_>
        <_>
          <internalNodes>
            0 -1 3 5.5778283625841141e-02</internalNodes>
          <leafValues>
            -4.3332475423812866e-01 6.0860872268676758e-01</leafValues></_>
        <_>
          <internalNodes>
            0 -1 28 -1.6134642064571381e-02</internalNodes>
          <leafValues>
            4.4727906584739685e-01 -6.0315889120101929e-01</leafValues></_>
        <_>
          <internalNodes>
            0 -1 80 2.4748796131461859e-03</internalNodes>
          <leafValues>
            -7.3647022247314453e-01 3.1278204917907715e-01</leafValues></_>
        <_>
          <internalNodes>
            0 -1 58 -3.3447258174419403e-03</internalNodes>
          <leafValues>
            4.1287595033645630e-01 -5.3392153978347778e-01</leafValues></_></weakClassifiers></_>
    <!-- stage 2 -->
    <_>
      <maxWeakCount>10</maxWeakCount>
      <stageThreshold>-1.4439423084259033e+00</stageThreshold>
      <weakClassifiers>
        <_>
          <internalNodes>
            0 -1 34 -3.4672774374485016e-02</internalNodes>
          <leafValues>
            6.3370788097381592e-01 -5.2903223037719727e-01</leafValues></_>
        <_>
          <internalNodes>
            0 -1 26 -3.7794984877109528e-02</internalNodes>
          <leafValues>
            7.3336678743362427e-01 -4.1120082139968872e-01</leafValues></_>
        <_>
          <internalNodes>
            0 -1 52 3.1351514160633087e-02</internalNodes>
          <leafValues>
            -4.4444727897644043e-01 6.8232798576354980e-01</leafValues></_>
        <_>
          <internalNodes>
            0 -1 80 3.2212994992733002e-02</internalNodes>
          <leafValues>
            -4.9231538176536560e-01 5.2440261840820312e-01</leafValues></_>
        <_>
          <internalNodes>
            0 -1 11 8.0442875623703003e-03</internalNodes>
          <leafValues>
            -4.8876449465751648e-01 3.9386895298957825e-01</leafValues></_>
        <_>
          <internalNodes>
            0 -1 7 -4.1332323104143143e-02</internalNodes>
          <leafValues>
            7.9831624031066895e-01 -2.5271469354629517e-01</leafValues></_>
        <_>
          <internalNodes>
            0 -1 54 -4.6813558787107468e-02</internalNodes>
          <leafValues>
            7.0091277360916138e-01 -2.3118461668491364e-01</leafValues></_>
        <_>
          <internalNodes>
            0 -1 9 3.3839950338006020e-03</internalNodes>
          <leafValues>
            -3.2469946146011353e-01 4.5126861333847046e-01</leafValues></_>
        <_>
          <internalNodes>
            0 -1 91 7.1550287306308746e-02</internalNodes>
          <leafValues>
            -1.8600061535835266e-01 9.0225857496261597e-01</leafValues></_>
        <_>
          <internalNodes>
            0 -1 76 6.4197927713394165e-03</internalNodes>
          <leafValues>
            -2.2707600891590118e-01 6.2421917915344238e-01</leafValues></_></weakClassifiers></_>
    <!-- stage 3 -->
    <_>
      <maxWeakCount>8</maxWeakCount>
      <stageThreshold>-7.5854235887527466e-01</stageThreshold>
      <weakClassifiers>
        <_>
          <internalNodes>
            0 -1 85 2.8405962511897087e-02</internalNodes>
          <leafValues>
            -2.3586744070053101e-01 7.5836974382400513e-01</leafValues></_>
        <_>
          <internalNodes>
            0 -1 51 3.1640239059925079e-02</internalNodes>
          <leafValues>
            -3.7991681694984436e-01 6.0764312744140625e-01</leafValues></_>
        <_>
          <internalNodes>
            0 -1 15 -3.5349346697330475e-02</internalNodes>
          <leafValues>
            5.8824771642684937e-01 -4.6714285016059875e-01</leafValues></_>
        <_>
          <internalNodes>
            0 -1 48 -3.3844420686364174e-03</internalNodes>
          <leafValues>
            3.2828468084335327e-01 -6.3926178216934204e-01</leafValues></_>
        <_>
          <internalNodes>
            0 -1 29 2.7218289673328400e-02</internalNodes>
          <leafValues>
            -4.1436937451362610e-01 5.0987482070922852e-01</leafValues></_>
        <_>
          <internalNodes>
            0 -1 62 -2.9335354920476675e-03</internalNodes>
          <leafValues>
            6.4257264137268066e-01 -2.7004167437553406e-01</leafValues></_>
        <_>
          <internalNodes>
            0 -1 49 -8.0550592392683029e-03</internalNodes>
          <leafValues>
            5.3368449211120605e-01 -3.1313532590866089e-01</leafValues></_>
        <_>
          <internalNodes>
            0 -1 36 1.3560882769525051e-02</internalNodes>
          <leafValues>
            1.9253189861774445e-01 -8.6322551965713501e-01</leafValues></_></weakClassifiers></_>
    <!-- stage 4 -->
    <_>
      <maxWeakCount>12</maxWeakCount>
      <stageThreshold>-1.2630041837692261e+00</stageThreshold>
      <weakClassifiers>
        <_>
          <internalNodes>
            0 -1 84 3.4906983375549316e-02</internalNodes>
          <leafValues>
            -1.6666667163372040e-01 7.4242424964904785e-01</leafValues></_>
        <_>
          <internalNodes>
            0 -1 21 2.1225489675998688e-02</internalNodes>
          <leafValues>
            -2.7448442578315735e-01 6.8146848678588867e-01</leafValues></_>
        <_>
          <internalNodes>
            0 -1 12 2.2851457819342613e-02</internalNodes>
          <leafValues>
            -4.9301359057426453e-01 4.2933312058448792e-01</leafValues></_>
        <_>
          <internalNodes>
            0 -1 37 -2.6041507720947266e-02</internalNodes>
          <leafValues>
            4.3574777245521545e-01 -4.1270974278450012e-01</leafValues></_>
        <_>
          <internalNodes>
            0 -1 70 4.0917236357927322e-02</internalNodes>
          <leafValues>
            -3.2098537683486938e-01 6.3357555866241455e-01</leafValues></_>
        <_>
          <internalNodes>
            0 -1 99 -2.0765105728060007e-03</internalNodes>
          <leafValues>
            3.6609479784965515e-01 -4.6795591711997986e-01</leafValues></_>
        <_>
          <internalNodes>
            0 -1 39 8.2073369994759560e-03</internalNodes>
          <leafValues>
            -3.6805027723312378e-01 4.0122815966606140e-01</leafValues></_>
        <_>
          <internalNodes>
            0 -1 66 1.0635053738951683e-02</internalNodes>
          <leafValues>
            2.0389637351036072e-01 -6.8852019309997559e-01</leafValues></_>
        <_>
          <internalNodes>
            0 -1 53 -1.6335112974047661e-02</internalNodes>
          <leafValues>
            1.9489799439907074e-01 -7.3244976997375488e-01</leafValues></_>
        <_>
          <internalNodes>
            0 -1 89 -3.9165653288364410e-02</internalNodes>
          <leafValues>
            6.7105156183242798e-01 -2.2082696855068207e-01</leafValues></_>
        <_>
          <internalNodes>
            0 -1 90 5.8285869657993317e-02</internalNodes>
          <leafValues>
            -2.1922007203102112e-01 6.1614298820495605e-01</leafValues></_>
        <_>
          <internalNodes>
            0 -1 75 -4.3568182736635208e-03</internalNodes>
          <leafValues>
            3.5976779460906982e-01 -3.9412260055541992e-01</leafValues></_></weakClassifiers></_>
    <!-- stage 5 -->
    <_>
      <maxWeakCount>10</maxWeakCount>
      <stageThreshold>-7.6648670434951782e-01</stageThreshold>
      <weakClassifiers>
        <_>
          <internalNodes>
            0 -1 2 5.6185588240623474e-02</internalNodes>
          <leafValues>
            -1.6853933036327362e-01 7.3573571443557739e-01</leafValues></_>
        <_>
          <internalNodes>
            0 -1 94 2.8683088719844818e-02</internalNodes>
          <leafValues>
            -2.5795072317123413e-01 6.8791109323501587e-01</leafValues></_>
        <_>
          <internalNodes>
            0 -1 23 5.2325851283967495e-03</internalNodes>
          <leafValues>
            -4.6773493289947510e-01 3.9577859640121460e-01</leafValues></_>
        <_>
          <internalNodes>
            0 -1 100 -6.8345600739121437e-03</internalNodes>
          <leafValues>
            4.8028138279914856e-01 -3.3795857429504395e-01</leafValues></_>
        <_>
          <internalNodes>
            0 -1 13 -2.2722810506820679e-02</internalNodes>
          <leafValues>
            7.0432865619659424e-01 -2.4378652870655060e-01</leafValues></_>
        <_>
          <internalNodes>
            0 -1 25 -2.0525336265563965e-02</internalNodes>
          <leafValues>
            5.4347646236419678e-01 -3.0298954248428345e-01</leafValues></_>
        <_>
          <internalNodes>
            0 -1 17 -3.4095510840415955e-02</internalNodes>
          <leafValues>
            2.6932576298713684e-01 -6.0634291172027588e-01</leafValues></_>
        <_>
          <internalNodes>
            0 -1 50 -2.7720318175852299e-03</internalNodes>
          <leafValues>
            3.5806858539581299e-01 -3.9287623763084412e-01</leafValues></_>
        <_>
          <internalNodes>
            0 -1 65 -4.3702539987862110e-03</internalNodes>
          <leafValues>
            -8.2422304153442383e-01 1.6157770156860352e-01</leafValues></_>
        <_>
          <internalNodes>
            0 -1 57 -1.5861254185438156e-02</internalNodes>
          <leafValues>
            2.8092953562736511e-01 -4.6572667360305786e-01</leafValues></_></weakClassifiers></_>
    <!-- stage 6 -->
    <_>
      <maxWeakCount>13</maxWeakCount>
      <stageThreshold>-8.6224472522735596e-01</stageThreshold>
      <weakClassifiers>
        <_>
          <internalNodes>
            0 -1 24 3.6705336533486843e-03</internalNodes>
          <leafValues>
            -2.8108108043670654e-01 6.0722893476486206e-01</leafValues></_>
        <_>
          <internalNodes>
            0 -1 61 6.5133674070239067e-03</internalNodes>
          <leafValues>
            -2.4003501236438751e-01 6.2591761350631714e-01</leafValues></_>
        <_>
          <internalNodes>
            0 -1 87 1.0760613717138767e-02</internalNodes>
          <leafValues>
            -4.1968190670013428e-01 3.8553893566131592e-01</leafValues></_>
        <_>
          <internalNodes>
            0 -1 41 -3.0210379045456648e-03</internalNodes>
          <leafValues>
            4.2611148953437805e-01 -3.5358232259750366e-01</leafValues></_>
        <_>
          <internalNodes>
            0 -1 38 -8.7738921865820885e-03</internalNodes>
          <leafValues>
            2.7851185202598572e-01 -4.1318035125732422e-01</leafValues></_>
        <_>
          <internalNodes>
            0 -1 16 7.0715118199586868e-03</internalNodes>
          <leafValues>
            1.8595924973487854e-01 -6.9229352474212646e-01</leafValues></_>
        <_>
          <internalNodes>
            0 -1 14 -3.9495564997196198e-02</internalNodes>
          <leafValues>
            6.6704779863357544e-01 -2.1400782465934753e-01</leafValues></_>
        <_>
          <internalNodes>
            0 -1 96 4.4978903606534004e-03</internalNodes>
          <leafValues>
            -2.7131551504135132e-01 4.3330070376396179e-01</leafValues></_>
        <_>
          <internalNodes>
            0 -1 0 5.9237740933895111e-02</internalNodes>
          <leafValues>
            -1.5262025594711304e-01 7.4580633640289307e-01</leafValues></_>
        <_>
          <internalNodes>
            0 -1 47 -8.7935989722609520e-03</internalNodes>
          <leafValues>
            2.5585302710533142e-01 -5.4655599594116211e-01</leafValues></_>
        <_>
          <internalNodes>
            0 -1 68 -1.6172549221664667e-03</internalNodes>
          <leafValues>
            2.6819378137588501e-01 -4.1533416509628296e-01</leafValues></_>
        <_>
          <internalNodes>
            0 -1 79 8.5275585297495127e-04</internalNodes>
          <leafValues>
            2.1594367921352386e-01 -4.7989162802696228e-01</leafValues></_>
        <_>
          <internalNodes>
            0 -1 60 -9.2490743845701218e-03</internalNodes>
          <leafValues>
            5.2158224582672119e-01 -2.3054830729961395e-01</leafValues></_></weakClassifiers></_>
    <!-- stage 7 -->
    <_>
      <maxWeakCount>12</maxWeakCount>
      <stageThreshold>-1.1653007268905640e+00</stageThreshold>
      <weakClassifiers>
        <_>
          <internalNodes>
            0 -1 95 1.5807840973138809e-02</internalNodes>
          <leafValues>
            -5.6657223030924797e-03 8.1781375408172607e-01</leafValues></_>
        <_>
          <internalNodes>
            0 -1 77 4.9772348254919052e-02</internalNodes>
          <leafValues>
            -1.9457542896270752e-01 7.0981103181838989e-01</leafValues></_>
        <_>
          <internalNodes>
            0 -1 19 2.6936419308185577e-02</internalNodes>
          <leafValues>
            -3.0652901530265808e-01 5.7962715625762939e-01</leafValues></_>
        <_>
          <internalNodes>
            0 -1 43 -7.2618976235389709e-02</internalNodes>
          <leafValues>
            5.3179514408111572e-01 -3.6565324664115906e-01</leafValues></_>
        <_>
          <internalNodes>
            0 -1 59 3.0252046883106232e-02</internalNodes>
          <leafValues>
            -1.8495641648769379e-01 5.6518620252609253e-01</leafValues></_>
        <_>
          <internalNodes>
            0 -1 63 -1.4631018973886967e-02</internalNodes>
          <leafValues>
            2.1190336346626282e-01 -6.5519428253173828e-01</leafValues></_>
        <_>
          <internalNodes>
            0 -1 64 -2.8976574540138245e-02</internalNodes>
          <leafValues>
            6.9752293825149536e-01 -1.8260319530963898e-01</leafValues></_>
        <_>
          <internalNodes>
            0 -1 82 7.9711392521858215e-02</internalNodes>
          <leafValues>
            -1.2823003530502319e-01 8.2740235328674316e-01</leafValues></_>
        <_>
          <internalNodes>
            0 -1 48 -3.5474854521453381e-03</internalNodes>
          <leafValues>
            1.9256114959716797e-01 -5.5996900796890259e-01</leafValues></_>
        <_>
          <internalNodes>
            0 -1 72 6.8789049983024597e-02</internalNodes>
          <leafValues>
            -2.0692387223243713e-01 5.8013743162155151e-01</leafValues></_>
        <_>
          <internalNodes>
            0 -1 56 -6.0463290661573410e-02</internalNodes>
          <leafValues>
            -9.2639917135238647e-01 1.5093226730823517e-01</leafValues></_>
        <_>
          <internalNodes>
            0 -1 93 8.2656636834144592e-02</internalNodes>
          <leafValues>
            -1.8009182810783386e-01 7.1384209394454956e-01</leafValues></_></weakClassifiers></_>
    <!-- stage 8 -->
    <_>
      <maxWeakCount>14</maxWeakCount>
      <stageThreshold>-7.7631008625030518e-01</stageThreshold>
      <weakClassifiers>
        <_>
          <internalNodes>
            0 -1 6 2.4697985500097275e-02</internalNodes>
          <leafValues>
            -2.3167155683040619e-01 5.5762517452239990e-01</leafValues></_>
        <_>
          <internalNodes>
            0 -1 97 -1.9433423876762390e-02</internalNodes>
          <leafValues>
            6.5867936611175537e-01 -2.0595937967300415e-01</leafValues></_>
        <_>
          <internalNodes>
            0 -1 5 7.2885952889919281e-02</internalNodes>
          <leafValues>
            -2.0632837712764740e-01 6.7473816871643066e-01</leafValues></_>
        <_>
          <internalNodes>
            0 -1 86 -3.1672082841396332e-02</internalNodes>
          <leafValues>
            5.7563370466232300e-01 -2.5231903791427612e-01</leafValues></_>
        <_>
          <internalNodes>
            0 -1 27 -4.6028830111026764e-02</internalNodes>
          <leafValues>
            7.1742880344390869e-01 -1.4947633445262909e-01</leafValues></_>
        <_>
          <internalNodes>
            0 -1 73 9.1495783999562263e-03</internalNodes>
          <leafValues>
            1.5112878382205963e-01 -8.9598798751831055e-01</leafValues></_>
        <_>
          <internalNodes>
            0 -1 8 7.1807980537414551e-02</internalNodes>
          <leafValues>
            -1.9750650227069855e-01 7.0628339052200317e-01</leafValues></_>
        <_>
          <internalNodes>
            0 -1 74 6.3186424085870385e-04</internalNodes>
          <leafValues>
            -3.7932392954826355e-01 3.8529565930366516e-01</leafValues></_>
        <_>
          <internalNodes>
            0 -1 83 -2.1204911172389984e-02</internalNodes>
          <leafValues>
            6.5734738111495972e-01 -1.8299183249473572e-01</leafValues></_>
        <_>
          <internalNodes>
            0 -1 33 -2.2810965776443481e-02</internalNodes>
          <leafValues>
            1.5592661499977112e-01 -8.2497084140777588e-01</leafValues></_>
        <_>
          <internalNodes>
            0 -1 18 -1.5878304839134216e-02</internalNodes>
          <leafValues>
            8.3891129493713379e-01 -1.7009934782981873e-01</leafValues></_>
        <_>
          <internalNodes>
            0 -1 4 7.4408814311027527e-02</internalNodes>
          <leafValues>
            -1.2844873964786530e-01 7.6090526580810547e-01</leafValues></_>
        <_>
          <internalNodes>
            0 -1 69 8.7036520242691040e-02</internalNodes>
          <leafValues>
            -1.9954909384250641e-01 5.4486817121505737e-01</leafValues></_>
        <_>
          <internalNodes>
            0 -1 92 5.3503379225730896e-02</internalNodes>
          <leafValues>
            -2.3602628707885742e-01 4.5568907260894775e-01</leafValues></_></weakClassifiers></_>
    <!-- stage 9 -->
    <_>
      <maxWeakCount>16</maxWeakCount>
      <stageThreshold>-1.1014919281005859e+00</stageThreshold>
      <weakClassifiers>
        <_>
          <internalNodes>
            0 -1 71 -4.8638219013810158e-03</internalNodes>
          <leafValues>
            -3.1058019399642944e-01 5.4134511947631836e-01</leafValues></_>
        <_>
          <internalNodes>
            0 -1 46 -6.5042369067668915e-02</internalNodes>
          <leafValues>
            3.1132090091705322e-01 -4.8640298843383789e-01</leafValues></_>
        <_>
          <internalNodes>
            0 -1 32 1.1028446257114410e-02</internalNodes>
          <leafValues>
            -3.3847570419311523e-01 3.8003310561180115e-01</leafValues></_>
        <_>
          <internalNodes>
            0 -1 40 -2.5407481007277966e-03</internalNodes>
          <leafValues>
            2.4235211312770844e-01 -5.5620193481445312e-01</leafValues></_>
        <_>
          <internalNodes>
            0 -1 98 -7.9594086855649948e-03</internalNodes>
          <leafValues>
            3.8215175271034241e-01 -3.8240313529968262e-01</leafValues></_>
        <_>
          <internalNodes>
            0 -1 22 1.3755412772297859e-02</internalNodes>
          <leafValues>
            -1.9328026473522186e-01 6.8246376514434814e-01</leafValues></_>
        <_>
          <internalNodes>
            0 -1 101 -2.8582576662302017e-02</internalNodes>
          <leafValues>
            4.1954448819160461e-01 -2.9373061656951904e-01</leafValues></_>
        <_>
          <internalNodes>
            0 -1 1 4.1670791804790497e-02</internalNodes>
          <leafValues>
            -1.8409110605716705e-01 5.4034316539764404e-01</leafValues></_>
        <_>
          <internalNodes>
            0 -1 30 9.4244396314024925e-03</internalNodes>
          <leafValues>
            -2.1967014670372009e-01 5.0057834386825562e-01</leafValues></_>
        <_>
          <internalNodes>
            0 -1 67 -1.3400595635175705e-02</internalNodes>
          <leafValues>
            -7.9959607124328613e-01 1.3933481276035309e-01</leafValues></_>
        <_>
          <internalNodes>
            0 -1 88 -6.7336717620491982e-03</internalNodes>
          <leafValues>
            3.8738968968391418e-01 -2.5472038984298706e-01</leafValues></_>
        <_>
          <internalNodes>
            0 -1 42 -1.2622667476534843e-02</internalNodes>
          <leafValues>
            2.9364493489265442e-01 -3.7797152996063232e-01</leafValues></_>
        <_>
          <internalNodes>
            0 -1 45 7.8871950507164001e-02</internalNodes>
          <leafValues>
            -1.4101505279541016e-01 7.5021123886108398e-01</leafValues></_>
        <_>
          <internalNodes>
            0 -1 55 -5.0944156944751740e-02</internalNodes>
          <leafValues>
            7.0362502336502075e-01 -1.1384184658527374e-01</leafValues></_>
        <_>
          <internalNodes>
            0 -1 44 -2.2931180894374847e-02</internalNodes>
          <leafValues>
            1.6609507799148560e-01 -6.3561093807220459e-01</leafValues></_>
        <_>
          <internalNodes>
            0 -1 10 1.4759281184524298e-03</internalNodes>
          <leafValues>
            1.2336730211973190e-01 -7.0737010240554810e-01</leafValues></_></weakClassifiers></_></stages>
  <features>
    <_>
      <rects>
        <_>
          0 3 6 7 -1.</_>
        <_>
          2 3 2 7 3.</_></rects>
      <tilted>0</tilted></_>
    <_>
      <rects>
        <_>
          0 3 6 8 -1.</_>
        <_>
          2 3 2 8 3.</_></rects>
      <tilted>0</tilted></_>
    <_>
      <rects>
        <_>
          0 3 9 9 -1.</_>
        <_>
          3 3 3 9 3.</_></rects>
      <tilted>0</tilted></_>
    <_>
      <rects>
        <_>
          0 3 9 10 -1.</_>
        <_>
          3 3 3 10 3.</_></rects>
      <tilted>0</tilted></_>
    <_>
      <rects>
        <_>
          1 2 6 12 -1.</_>
        <_>
          4 2 3 12 2.</_></rects>
      <tilted>0</tilted></_>
    <_>
      <rects>
        <_>
          1 5 8 10 -1.</_>
        <_>
          1 5 4 5 2.</_>
        <_>
          5 10 4 5 2.</_></rects>
      <tilted>0</tilted></_>
    <_>
      <rects>
        <_>
          2 0 16 4 -1.</_>
        <_>
          2 2 16 2 2.</_></rects>
      <tilted>0</tilted></_>
    <_>
      <rects>
        <_>
          2 2 8 6 -1.</_>
        <_>
          2 2 4 3 2.</_>
        <_>
          6 5 4 3 2.</_></rects>
      <tilted>0</tilted></_>
    <_>
      <rects>
        <_>
          2 2 5 12 -1.</_>
        <_>
          2 6 5 4 3.</_></rects>
      <tilted>0</tilted></_>
    <_>
      <rects>
        <_>
          2 5 6 1 -1.</_>
        <_>
          4 5 2 1 3.</_></rects>
      <tilted>0</tilted></_>
    <_>
      <rects>
        <_>
          2 7 2 2 -1.</_>
        <_>
          2 8 2 1 2.</_></rects>
      <tilted>0</tilted></_>
    <_>
      <rects>
        <_>
          2 11 9 4 -1.</_>
        <_>
          5 11 3 4 3.</_></rects>
      <tilted>0</tilted></_>
    <_>
      <rects>
        <_>
          3 0 15 4 -1.</_>
        <_>
          3 2 15 2 2.</_></rects>
      <tilted>0</tilted></_>
    <_>
      <rects>
        <_>
          3 3 6 4 -1.</_>
        <_>
          3 3 3 2 2.</_>
        <_>
          6 5 3 2 2.</_></rects>
      <tilted>0</tilted></_>
    <_>
      <rects>
        <_>
          3 3 6 6 -1.</_>
        <_>
          3 3 3 3 2.</_>
        <_>
          6 6 3 3 2.</_></rects>
      <tilted>0</tilted></_>
    <_>
      <rects>
        <_>
          3 3 6 8 -1.</_>
        <_>
          6 3 3 8 2.</_></rects>
      <tilted>0</tilted></_>
    <_>
      <rects>
        <_>
          3 3 7 12 -1.</_>
        <_>
          3 9 7 6 2.</_></rects>
      <tilted>0</tilted></_>
    <_>
      <rects>
        <_>
          3 3 11 8 -1.</_>
        <_>
          3 7 11 4 2.</_></rects>
      <tilted>0</tilted></_>
    <_>
      <rects>
        <_>
          3 4 6 1 -1.</_>
        <_>
          6 4 3 1 2.</_></rects>
      <tilted>0</tilted></_>
    <_>
      <rects>
        <_>
          3 5 4 10 -1.</_>
        <_>
          3 5 2 5 2.</_>
        <_>
          5 10 2 5 2.</_></rects>
      <tilted>0</tilted></_>
    <_>
      <rects>
        <_>
          3 5 15 8 -1.</_>
        <_>
          8 5 5 8 3.</_></rects>
      <tilted>0</tilted></_>
    <_>
      <rects>
        <_>
          3 6 4 8 -1.</_>
        <_>
          3 6 2 4 2.</_>
        <_>
          5 10 2 4 2.</_></rects>
      <tilted>0</tilted></_>
    <_>
      <rects>
        <_>
          3 10 4 4 -1.</_>
        <_>
          3 10 2 2 2.</_>
        <_>
          5 12 2 2 2.</_></rects>
      <tilted>0</tilted></_>
    <_>
      <rects>
        <_>
          4 0 12 2 -1.</_>
        <_>
          4 1 12 1 2.</_></rects>
      <tilted>0</tilted></_>
    <_>
      <rects>
        <_>
          4 2 2 6 -1.</_>
        <_>
          4 4 2 2 3.</_></rects>
      <tilted>0</tilted></_>
    <_>
      <rects>
        <_>
          4 4 12 1 -1.</_>
        <_>
          8 4 4 1 3.</_></rects>
      <tilted>0</tilted></_>
    <_>
      <rects>
        <_>
          4 4 12 2 -1.</_>
        <_>
          8 4 4 2 3.</_></rects>
      <tilted>0</tilted></_>
    <_>
      <rects>
        <_>
          4 4 15 1 -1.</_>
        <_>
          9 4 5 1 3.</_></rects>
      <tilted>0</tilted></_>
    <_>
      <rects>
        <_>
          4 4 12 4 -1.</_>
        <_>
          4 6 12 2 2.</_></rects>
      <tilted>0</tilted></_>
    <_>
      <rects>
        <_>
          5 0 3 9 -1.</_>
        <_>
          5 3 3 3 3.</_></rects>
      <tilted>0</tilted></_>
    <_>
      <rects>
        <_>
          5 0 5 2 -1.</_>
        <_>
          5 1 5 1 2.</_></rects>
      <tilted>0</tilted></_>
    <_>
      <rects>
        <_>
          5 0 12 6 -1.</_>
        <_>
          5 2 12 2 3.</_></rects>
      <tilted>0</tilted></_>
    <_>
      <rects>
        <_>
          5 1 10 2 -1.</_>
        <_>
          5 2 10 1 2.</_></rects>
      <tilted>0</tilted></_>
    <_>
      <rects>
        <_>
          5 2 10 8 -1.</_>
        <_>
          5 6 10 4 2.</_></rects>
      <tilted>0</tilted></_>
    <_>
      <rects>
        <_>
          5 2 11 6 -1.</_>
        <_>
          5 5 11 3 2.</_></rects>
      <tilted>0</tilted></_>
    <_>
      <rects>
        <_>
          5 2 11 8 -1.</_>
        <_>
          5 6 11 4 2.</_></rects>
      <tilted>0</tilted></_>
    <_>
      <rects>
        <_>
          5 3 13 10 -1.</_>
        <_>
          5 8 13 5 2.</_></rects>
      <tilted>0</tilted></_>
    <_>
      <rects>
        <_>
          5 4 12 2 -1.</_>
        <_>
          9 4 4 2 3.</_></rects>
      <tilted>0</tilted></_>
    <_>
      <rects>
        <_>
          5 6 6 7 -1.</_>
        <_>
          7 6 2 7 3.</_></rects>
      <tilted>0</tilted></_>
    <_>
      <rects>
        <_>
          5 10 3 6 -1.</_>
        <_>
          5 12 3 2 3.</_></rects>
      <tilted>0</tilted></_>
    <_>
      <rects>
        <_>
          5 10 8 4 -1.</_>
        <_>
          9 10 4 4 2.</_></rects>
      <tilted>0</tilted></_>
    <_>
      <rects>
        <_>
          5 14 5 2 -1.</_>
        <_>
          5 15 5 1 2.</_></rects>
      <tilted>0</tilted></_>
    <_>
      <rects>
        <_>
          6 1 9 4 -1.</_>
        <_>
          9 1 3 4 3.</_></rects>
      <tilted>0</tilted></_>
    <_>
      <rects>
        <_>
          6 1 12 6 -1.</_>
        <_>
          10 1 4 6 3.</_></rects>
      <tilted>0</tilted></_>
    <_>
      <rects>
        <_>
          6 1 10 14 -1.</_>
        <_>
          6 8 10 7 2.</_></rects>
      <tilted>0</tilted></_>
    <_>
      <rects>
        <_>
          6 2 12 5 -1.</_>
        <_>
          10 2 4 5 3.</_></rects>
      <tilted>0</tilted></_>
    <_>
      <rects>
        <_>
          6 2 10 12 -1.</_>
        <_>
          6 6 10 4 3.</_></rects>
      <tilted>0</tilted></_>
    <_>
      <rects>
        <_>
          6 12 9 3 -1.</_>
        <_>
          9 12 3 3 3.</_></rects>
      <tilted>0</tilted></_>
    <_>
      <rects>
        <_>
          6 13 9 1 -1.</_>
        <_>
          9 13 3 1 3.</_></rects>
      <tilted>0</tilted></_>
    <_>
      <rects>
        <_>
          6 13 5 4 -1.</_>
        <_>
          6 15 5 2 2.</_></rects>
      <tilted>0</tilted></_>
    <_>
      <rects>
        <_>
          6 14 10 2 -1.</_>
        <_>
          6 15 10 1 2.</_></rects>
      <tilted>0</tilted></_>
    <_>
      <rects>
        <_>
          7 0 6 6 -1.</_>
        <_>
          7 2 6 2 3.</_></rects>
      <tilted>0</tilted></_>
    <_>
      <rects>
        <_>
          7 0 12 4 -1.</_>
        <_>
          7 2 12 2 2.</_></rects>
      <tilted>0</tilted></_>
    <_>
      <rects>
        <_>
          7 1 8 8 -1.</_>
        <_>
          7 5 8 4 2.</_></rects>
      <tilted>0</tilted></_>
    <_>
      <rects>
        <_>
          7 3 12 3 -1.</_>
        <_>
          11 3 4 3 3.</_></rects>
      <tilted>0</tilted></_>
    <_>
      <rects>
        <_>
          7 4 12 2 -1.</_>
        <_>
          11 4 4 2 3.</_></rects>
      <tilted>0</tilted></_>
    <_>
      <rects>
        <_>
          7 10 9 4 -1.</_>
        <_>
          10 10 3 4 3.</_></rects>
      <tilted>0</tilted></_>
    <_>
      <rects>
        <_>
          7 12 9 3 -1.</_>
        <_>
          10 12 3 3 3.</_></rects>
      <tilted>0</tilted></_>
    <_>
      <rects>
        <_>
          7 14 10 2 -1.</_>
        <_>
          7 15 10 1 2.</_></rects>
      <tilted>0</tilted></_>
    <_>
      <rects>
        <_>
          8 0 3 6 -1.</_>
        <_>
          8 2 3 2 3.</_></rects>
      <tilted>0</tilted></_>
    <_>
      <rects>
        <_>
          8 1 12 2 -1.</_>
        <_>
          8 1 6 1 2.</_>
        <_>
          14 2 6 1 2.</_></rects>
      <tilted>0</tilted></_>
    <_>
      <rects>
        <_>
          9 1 2 3 -1.</_>
        <_>
          9 2 2 1 3.</_></rects>
      <tilted>0</tilted></_>
    <_>
      <rects>
        <_>
          9 2 2 2 -1.</_>
        <_>
          9 3 2 1 2.</_></rects>
      <tilted>0</tilted></_>
    <_>
      <rects>
        <_>
          9 2 10 14 -1.</_>
        <_>
          9 9 10 7 2.</_></rects>
      <tilted>0</tilted></_>
    <_>
      <rects>
        <_>
          9 3 8 6 -1.</_>
        <_>
          9 3 4 3 2.</_>
        <_>
          13 6 4 3 2.</_></rects>
      <tilted>0</tilted></_>
    <_>
      <rects>
        <_>
          9 7 1 6 -1.</_>
        <_>
          9 10 1 3 2.</_></rects>
      <tilted>0</tilted></_>
    <_>
      <rects>
        <_>
          9 7 3 8 -1.</_>
        <_>
          9 11 3 4 2.</_></rects>
      <tilted>0</tilted></_>
    <_>
      <rects>
        <_>
          9 8 3 6 -1.</_>
        <_>
          9 11 3 3 2.</_></rects>
      <tilted>0</tilted></_>
    <_>
      <rects>
        <_>
          10 2 1 6 -1.</_>
        <_>
          10 4 1 2 3.</_></rects>
      <tilted>0</tilted></_>
    <_>
      <rects>
        <_>
          10 2 9 10 -1.</_>
        <_>
          13 2 3 10 3.</_></rects>
      <tilted>0</tilted></_>
    <_>
      <rects>
        <_>
          10 2 8 6 -1.</_>
        <_>
          10 2 4 3 2.</_>
        <_>
          14 5 4 3 2.</_></rects>
      <tilted>0</tilted></_>
    <_>
      <rects>
        <_>
          10 4 1 12 -1.</_>
        <_>
          10 8 1 4 3.</_></rects>
      <tilted>0</tilted></_>
    <_>
      <rects>
        <_>
          10 4 9 7 -1.</_>
        <_>
          13 4 3 7 3.</_></rects>
      <tilted>0</tilted></_>
    <_>
      <rects>
        <_>
          10 6 1 9 -1.</_>
        <_>
          10 9 1 3 3.</_></rects>
      <tilted>0</tilted></_>
    <_>
      <rects>
        <_>
          10 8 1 6 -1.</_>
        <_>
          10 10 1 2 3.</_></rects>
      <tilted>0</tilted></_>
    <_>
      <rects>
        <_>
          10 13 6 4 -1.</_>
        <_>
          10 13 3 2 2.</_>
        <_>
          13 15 3 2 2.</_></rects>
      <tilted>0</tilted></_>
    <_>
      <rects>
        <_>
          11 0 5 2 -1.</_>
        <_>
          11 1 5 1 2.</_></rects>
      <tilted>0</tilted></_>
    <_>
      <rects>
        <_>
          11 2 8 6 -1.</_>
        <_>
          11 2 4 3 2.</_>
        <_>
          15 5 4 3 2.</_></rects>
      <tilted>0</tilted></_>
    <_>
      <rects>
        <_>
          11 4 6 11 -1.</_>
        <_>
          14 4 3 11 2.</_></rects>
      <tilted>0</tilted></_>
    <_>
      <rects>
        <_>
          11 5 3 10 -1.</_>
        <_>
          12 5 1 10 3.</_></rects>
      <tilted>0</tilted></_>
    <_>
      <rects>
        <_>
          11 10 9 5 -1.</_>
        <_>
          14 10 3 5 3.</_></rects>
      <tilted>0</tilted></_>
    <_>
      <rects>
        <_>
          11 11 9 3 -1.</_>
        <_>
          14 11 3 3 3.</_></rects>
      <tilted>0</tilted></_>
    <_>
      <rects>
        <_>
          12 1 6 10 -1.</_>
        <_>
          12 1 3 5 2.</_>
        <_>
          15 6 3 5 2.</_></rects>
      <tilted>0</tilted></_>
    <_>
      <rects>
        <_>
          12 13 5 4 -1.</_>
        <_>
          12 15 5 2 2.</_></rects>
      <tilted>0</tilted></_>
    <_>
      <rects>
        <_>
          13 4 4 9 -1.</_>
        <_>
          15 4 2 9 2.</_></rects>
      <tilted>0</tilted></_>
    <_>
      <rects>
        <_>
          13 5 4 8 -1.</_>
        <_>
          15 5 2 8 2.</_></rects>
      <tilted>0</tilted></_>
    <_>
      <rects>
        <_>
          13 7 4 10 -1.</_>
        <_>
          13 7 2 5 2.</_>
        <_>
          15 12 2 5 2.</_></rects>
      <tilted>0</tilted></_>
    <_>
      <rects>
        <_>
          13 9 4 4 -1.</_>
        <_>
          15 9 2 4 2.</_></rects>
      <tilted>0</tilted></_>
    <_>
      <rects>
        <_>
          13 9 3 6 -1.</_>
        <_>
          13 11 3 2 3.</_></rects>
      <tilted>0</tilted></_>
    <_>
      <rects>
        <_>
          14 1 4 11 -1.</_>
        <_>
          16 1 2 11 2.</_></rects>
      <tilted>0</tilted></_>
    <_>
      <rects>
        <_>
          14 2 6 13 -1.</_>
        <_>
          16 2 2 13 3.</_></rects>
      <tilted>0</tilted></_>
    <_>
      <rects>
        <_>
          14 3 6 9 -1.</_>
        <_>
          16 3 2 9 3.</_></rects>
      <tilted>0</tilted></_>
    <_>
      <rects>
        <_>
          14 4 6 16 -1.</_>
        <_>
          16 4 2 16 3.</_></rects>
      <tilted>0</tilted></_>
    <_>
      <rects>
        <_>
          14 5 6 8 -1.</_>
        <_>
          16 5 2 8 3.</_></rects>
      <tilted>0</tilted></_>
    <_>
      <rects>
        <_>
          14 6 6 3 -1.</_>
        <_>
          16 6 2 3 3.</_></rects>
      <tilted>0</tilted></_>
    <_>
      <rects>
        <_>
          15 0 1 9 -1.</_>
        <_>
          15 3 1 3 3.</_></rects>
      <tilted>0</tilted></_>
    <_>
      <rects>
        <_>
          15 2 1 6 -1.</_>
        <_>
          15 4 1 2 3.</_></rects>
      <tilted>0</tilted></_>
    <_>
      <rects>
        <_>
          15 8 4 6 -1.</_>
        <_>
          15 8 2 3 2.</_>
        <_>
          17 11 2 3 2.</_></rects>
      <tilted>0</tilted></_>
    <_>
      <rects>
        <_>
          15 11 4 3 -1.</_>
        <_>
          17 11 2 3 2.</_></rects>
      <tilted>0</tilted></_>
    <_>
      <rects>
        <_>
          15 11 4 4 -1.</_>
        <_>
          17 11 2 4 2.</_></rects>
      <tilted>0</tilted></_>
    <_>
      <rects>
        <_>
          15 12 2 4 -1.</_>
        <_>
          15 14 2 2 2.</_></rects>
      <tilted>0</tilted></_>
    <_>
      <rects>
        <_>
          16 5 2 12 -1.</_>
        <_>
          16 11 2 6 2.</_></rects>
      <tilted>0</tilted></_></features></cascade>
</opencv_storage>
