<?xml version="1.0"?>
<opencv_storage>
<stage3>
  <maxWeakCount>8</maxWeakCount>
  <stageThreshold>-7.5854235887527466e-01</stageThreshold>
  <weakClassifiers>
    <_>
      <internalNodes>
        0 -1 69874 2.8405962511897087e-02</internalNodes>
      <leafValues>
        -2.3586744070053101e-01 7.5836974382400513e-01</leafValues></_>
    <_>
      <internalNodes>
        0 -1 45463 3.1640239059925079e-02</internalNodes>
      <leafValues>
        -3.7991681694984436e-01 6.0764312744140625e-01</leafValues></_>
    <_>
      <internalNodes>
        0 -1 23641 -3.5349346697330475e-02</internalNodes>
      <leafValues>
        5.8824771642684937e-01 -4.6714285016059875e-01</leafValues></_>
    <_>
      <internalNodes>
        0 -1 44535 -3.3844420686364174e-03</internalNodes>
      <leafValues>
        3.2828468084335327e-01 -6.3926178216934204e-01</leafValues></_>
    <_>
      <internalNodes>
        0 -1 34335 2.7218289673328400e-02</internalNodes>
      <leafValues>
        -4.1436937451362610e-01 5.0987482070922852e-01</leafValues></_>
    <_>
      <internalNodes>
        0 -1 55431 -2.9335354920476675e-03</internalNodes>
      <leafValues>
        6.4257264137268066e-01 -2.7004167437553406e-01</leafValues></_>
    <_>
      <internalNodes>
        0 -1 44582 -8.0550592392683029e-03</internalNodes>
      <leafValues>
        5.3368449211120605e-01 -3.1313532590866089e-01</leafValues></_>
    <_>
      <internalNodes>
        0 -1 36184 1.3560882769525051e-02</internalNodes>
      <leafValues>
        1.9253189861774445e-01 -8.6322551965713501e-01</leafValues></_></weakClassifiers></stage3>
</opencv_storage>
