<?xml version="1.0"?>
<opencv_storage>
<stage6>
  <maxWeakCount>13</maxWeakCount>
  <stageThreshold>-8.6224472522735596e-01</stageThreshold>
  <weakClassifiers>
    <_>
      <internalNodes>
        0 -1 29275 3.6705336533486843e-03</internalNodes>
      <leafValues>
        -2.8108108043670654e-01 6.0722893476486206e-01</leafValues></_>
    <_>
      <internalNodes>
        0 -1 55073 6.5133674070239067e-03</internalNodes>
      <leafValues>
        -2.4003501236438751e-01 6.2591761350631714e-01</leafValues></_>
    <_>
      <internalNodes>
        0 -1 70491 1.0760613717138767e-02</internalNodes>
      <leafValues>
        -4.1968190670013428e-01 3.8553893566131592e-01</leafValues></_>
    <_>
      <internalNodes>
        0 -1 39411 -3.0210379045456648e-03</internalNodes>
      <leafValues>
        4.2611148953437805e-01 -3.5358232259750366e-01</leafValues></_>
    <_>
      <internalNodes>
        0 -1 37143 -8.7738921865820885e-03</internalNodes>
      <leafValues>
        2.7851185202598572e-01 -4.1318035125732422e-01</leafValues></_>
    <_>
      <internalNodes>
        0 -1 23832 7.0715118199586868e-03</internalNodes>
      <leafValues>
        1.8595924973487854e-01 -6.9229352474212646e-01</leafValues></_>
    <_>
      <internalNodes>
        0 -1 23622 -3.9495564997196198e-02</internalNodes>
      <leafValues>
        6.6704779863357544e-01 -2.1400782465934753e-01</leafValues></_>
    <_>
      <internalNodes>
        0 -1 73843 4.4978903606534004e-03</internalNodes>
      <leafValues>
        -2.7131551504135132e-01 4.3330070376396179e-01</leafValues></_>
    <_>
      <internalNodes>
        0 -1 2198 5.9237740933895111e-02</internalNodes>
      <leafValues>
        -1.5262025594711304e-01 7.4580633640289307e-01</leafValues></_>
    <_>
      <internalNodes>
        0 -1 44353 -8.7935989722609520e-03</internalNodes>
      <leafValues>
        2.5585302710533142e-01 -5.4655599594116211e-01</leafValues></_>
    <_>
      <internalNodes>
        0 -1 59320 -1.6172549221664667e-03</internalNodes>
      <leafValues>
        2.6819378137588501e-01 -4.1533416509628296e-01</leafValues></_>
    <_>
      <internalNodes>
        0 -1 63897 8.5275585297495127e-04</internalNodes>
      <leafValues>
        2.1594367921352386e-01 -4.7989162802696228e-01</leafValues></_>
    <_>
      <internalNodes>
        0 -1 50712 -9.2490743845701218e-03</internalNodes>
      <leafValues>
        5.2158224582672119e-01 -2.3054830729961395e-01</leafValues></_></weakClassifiers></stage6>
</opencv_storage>
