<?xml version="1.0"?>
<opencv_storage>
<cascade>
  <stageType>BOOST</stageType>
  <featureType>HAAR</featureType>
  <height>20</height>
  <width>20</width>
  <stageParams>
    <boostType>GAB</boostType>
    <minHitRate>9.9500000476837158e-01</minHitRate>
    <maxFalseAlarm>5.0000000000000000e-01</maxFalseAlarm>
    <weightTrimRate>9.4999999999999996e-01</weightTrimRate>
    <maxDepth>1</maxDepth>
    <maxWeakCount>100</maxWeakCount></stageParams>
  <featureParams>
    <maxCatCount>0</maxCatCount>
    <featSize>1</featSize>
    <mode>BASIC</mode></featureParams>
  <stageNum>15</stageNum>
  <stages>
    <!-- stage 0 -->
    <_>
      <maxWeakCount>3</maxWeakCount>
      <stageThreshold>-9.0888059139251709e-01</stageThreshold>
      <weakClassifiers>
        <_>
          <internalNodes>
            0 -1 40 1.9624933600425720e-02</internalNodes>
          <leafValues>
            -7.8881984949111938e-01 8.6627334356307983e-01</leafValues></_>
        <_>
          <internalNodes>
            0 -1 21 3.7096932530403137e-02</internalNodes>
          <leafValues>
            -7.6113295555114746e-01 8.1635463237762451e-01</leafValues></_>
        <_>
          <internalNodes>
            0 -1 12 3.8058608770370483e-02</internalNodes>
          <leafValues>
            -9.2936611175537109e-01 6.4107221364974976e-01</leafValues></_></weakClassifiers></_>
    <!-- stage 1 -->
    <_>
      <maxWeakCount>2</maxWeakCount>
      <stageThreshold>-5.5491648614406586e-02</stageThreshold>
      <weakClassifiers>
        <_>
          <internalNodes>
            0 -1 37 7.9411976039409637e-03</internalNodes>
          <leafValues>
            -7.1428573131561279e-01 8.2822084426879883e-01</leafValues></_>
        <_>
          <internalNodes>
            0 -1 24 -1.2739457190036774e-02</internalNodes>
          <leafValues>
            6.9372558593750000e-01 -8.8371253013610840e-01</leafValues></_></weakClassifiers></_>
    <!-- stage 2 -->
    <_>
      <maxWeakCount>4</maxWeakCount>
      <stageThreshold>-1.2634305953979492e+00</stageThreshold>
      <weakClassifiers>
        <_>
          <internalNodes>
            0 -1 41 -2.1832047030329704e-02</internalNodes>
          <leafValues>
            7.2544640302658081e-01 -8.2236844301223755e-01</leafValues></_>
        <_>
          <internalNodes>
            0 -1 28 4.6847969293594360e-02</internalNodes>
          <leafValues>
            -5.8834707736968994e-01 7.8133451938629150e-01</leafValues></_>
        <_>
          <internalNodes>
            0 -1 63 -4.5017991214990616e-03</internalNodes>
          <leafValues>
            7.0003741979598999e-01 -5.3622037172317505e-01</leafValues></_>
        <_>
          <internalNodes>
            0 -1 30 1.4223361387848854e-02</internalNodes>
          <leafValues>
            -8.6430960893630981e-01 4.2983454465866089e-01</leafValues></_></weakClassifiers></_>
    <!-- stage 3 -->
    <_>
      <maxWeakCount>3</maxWeakCount>
      <stageThreshold>-1.0381734371185303e+00</stageThreshold>
      <weakClassifiers>
        <_>
          <internalNodes>
            0 -1 39 1.1306082829833031e-02</internalNodes>
          <leafValues>
            -8.1690138578414917e-01 6.8995630741119385e-01</leafValues></_>
        <_>
          <internalNodes>
            0 -1 5 -4.0836021304130554e-02</internalNodes>
          <leafValues>
            5.4418158531188965e-01 -8.4962671995162964e-01</leafValues></_>
        <_>
          <internalNodes>
            0 -1 58 9.8522112239152193e-04</internalNodes>
          <leafValues>
            -8.7850302457809448e-01 4.1405430436134338e-01</leafValues></_></weakClassifiers></_>
    <!-- stage 4 -->
    <_>
      <maxWeakCount>5</maxWeakCount>
      <stageThreshold>-6.3889503479003906e-01</stageThreshold>
      <weakClassifiers>
        <_>
          <internalNodes>
            0 -1 9 4.5837663114070892e-02</internalNodes>
          <leafValues>
            -9.6380090713500977e-01 6.2614911794662476e-01</leafValues></_>
        <_>
          <internalNodes>
            0 -1 22 2.1303728222846985e-02</internalNodes>
          <leafValues>
            -5.8289766311645508e-01 7.0803856849670410e-01</leafValues></_>
        <_>
          <internalNodes>
            0 -1 26 -2.3159153759479523e-02</internalNodes>
          <leafValues>
            4.6855950355529785e-01 -7.9777097702026367e-01</leafValues></_>
        <_>
          <internalNodes>
            0 -1 56 2.9630726203322411e-02</internalNodes>
          <leafValues>
            -5.4410326480865479e-01 6.2429648637771606e-01</leafValues></_>
        <_>
          <internalNodes>
            0 -1 34 1.4347029849886894e-02</internalNodes>
          <leafValues>
            -5.0625675916671753e-01 6.5972763299942017e-01</leafValues></_></weakClassifiers></_>
    <!-- stage 5 -->
    <_>
      <maxWeakCount>4</maxWeakCount>
      <stageThreshold>-6.1358827352523804e-01</stageThreshold>
      <weakClassifiers>
        <_>
          <internalNodes>
            0 -1 32 -1.2176207266747952e-02</internalNodes>
          <leafValues>
            6.4472311735153198e-01 -8.9300411939620972e-01</leafValues></_>
        <_>
          <internalNodes>
            0 -1 36 1.1549802124500275e-01</internalNodes>
          <leafValues>
            -4.9628487229347229e-01 8.4418177604675293e-01</leafValues></_>
        <_>
          <internalNodes>
            0 -1 14 2.7424803003668785e-02</internalNodes>
          <leafValues>
            4.1293436288833618e-01 -9.2651987075805664e-01</leafValues></_>
        <_>
          <internalNodes>
            0 -1 2 1.1801470071077347e-02</internalNodes>
          <leafValues>
            -8.7921750545501709e-01 3.6276635527610779e-01</leafValues></_></weakClassifiers></_>
    <!-- stage 6 -->
    <_>
      <maxWeakCount>5</maxWeakCount>
      <stageThreshold>-5.6061428785324097e-01</stageThreshold>
      <weakClassifiers>
        <_>
          <internalNodes>
            0 -1 55 -7.8937336802482605e-03</internalNodes>
          <leafValues>
            5.7979798316955566e-01 -8.2857143878936768e-01</leafValues></_>
        <_>
          <internalNodes>
            0 -1 25 1.0647989809513092e-01</internalNodes>
          <leafValues>
            -4.6968519687652588e-01 6.8353146314620972e-01</leafValues></_>
        <_>
          <internalNodes>
            0 -1 57 1.1093130335211754e-02</internalNodes>
          <leafValues>
            -5.7928502559661865e-01 5.9464502334594727e-01</leafValues></_>
        <_>
          <internalNodes>
            0 -1 17 4.6753161586821079e-03</internalNodes>
          <leafValues>
            -7.4922746419906616e-01 4.9242013692855835e-01</leafValues></_>
        <_>
          <internalNodes>
            0 -1 0 1.7077952623367310e-02</internalNodes>
          <leafValues>
            -3.2870945334434509e-01 9.1650509834289551e-01</leafValues></_></weakClassifiers></_>
    <!-- stage 7 -->
    <_>
      <maxWeakCount>6</maxWeakCount>
      <stageThreshold>-1.1843721866607666e+00</stageThreshold>
      <weakClassifiers>
        <_>
          <internalNodes>
            0 -1 27 -4.4464709935709834e-04</internalNodes>
          <leafValues>
            -7.8504675626754761e-01 5.7606488466262817e-01</leafValues></_>
        <_>
          <internalNodes>
            0 -1 10 5.6270118802785873e-02</internalNodes>
          <leafValues>
            -5.4915016889572144e-01 5.1411837339401245e-01</leafValues></_>
        <_>
          <internalNodes>
            0 -1 33 -1.3126600533723831e-02</internalNodes>
          <leafValues>
            4.6689790487289429e-01 -6.8602228164672852e-01</leafValues></_>
        <_>
          <internalNodes>
            0 -1 59 -3.5245765466243029e-03</internalNodes>
          <leafValues>
            4.2173230648040771e-01 -5.7517528533935547e-01</leafValues></_>
        <_>
          <internalNodes>
            0 -1 51 5.0976671278476715e-02</internalNodes>
          <leafValues>
            -3.8424536585807800e-01 6.6232466697692871e-01</leafValues></_>
        <_>
          <internalNodes>
            0 -1 49 3.2948505133390427e-02</internalNodes>
          <leafValues>
            -6.1241400241851807e-01 6.3321238756179810e-01</leafValues></_></weakClassifiers></_>
    <!-- stage 8 -->
    <_>
      <maxWeakCount>3</maxWeakCount>
      <stageThreshold>-1.4264824986457825e-01</stageThreshold>
      <weakClassifiers>
        <_>
          <internalNodes>
            0 -1 29 -7.8071572352200747e-04</internalNodes>
          <leafValues>
            -9.6590906381607056e-01 5.5664062500000000e-01</leafValues></_>
        <_>
          <internalNodes>
            0 -1 6 8.4420442581176758e-03</internalNodes>
          <leafValues>
            -9.4091689586639404e-01 3.1970214843750000e-01</leafValues></_>
        <_>
          <internalNodes>
            0 -1 31 -1.6736570745706558e-02</internalNodes>
          <leafValues>
            -9.6985578536987305e-01 2.4162800610065460e-01</leafValues></_></weakClassifiers></_>
    <!-- stage 9 -->
    <_>
      <maxWeakCount>4</maxWeakCount>
      <stageThreshold>-7.4729365110397339e-01</stageThreshold>
      <weakClassifiers>
        <_>
          <internalNodes>
            0 -1 47 1.8791037146002054e-03</internalNodes>
          <leafValues>
            -9.5580112934112549e-01 5.6231600046157837e-01</leafValues></_>
        <_>
          <internalNodes>
            0 -1 16 1.0966925183311105e-03</internalNodes>
          <leafValues>
            -7.9904091358184814e-01 3.8240602612495422e-01</leafValues></_>
        <_>
          <internalNodes>
            0 -1 4 5.2691657096147537e-02</internalNodes>
          <leafValues>
            2.9566863179206848e-01 -9.0890568494796753e-01</leafValues></_>
        <_>
          <internalNodes>
            0 -1 43 6.1377631500363350e-03</internalNodes>
          <leafValues>
            2.9090985655784607e-01 -8.0623733997344971e-01</leafValues></_></weakClassifiers></_>
    <!-- stage 10 -->
    <_>
      <maxWeakCount>4</maxWeakCount>
      <stageThreshold>-2.9105874896049500e-01</stageThreshold>
      <weakClassifiers>
        <_>
          <internalNodes>
            0 -1 7 7.6183453202247620e-03</internalNodes>
          <leafValues>
            -9.5428574085235596e-01 5.5317074060440063e-01</leafValues></_>
        <_>
          <internalNodes>
            0 -1 46 4.0644924156367779e-03</internalNodes>
          <leafValues>
            -5.7633340358734131e-01 5.8743423223495483e-01</leafValues></_>
        <_>
          <internalNodes>
            0 -1 38 1.3501915149390697e-02</internalNodes>
          <leafValues>
            -7.7736520767211914e-01 4.4932249188423157e-01</leafValues></_>
        <_>
          <internalNodes>
            0 -1 48 5.8325808495283127e-03</internalNodes>
          <leafValues>
            -6.5429848432540894e-01 5.2332979440689087e-01</leafValues></_></weakClassifiers></_>
    <!-- stage 11 -->
    <_>
      <maxWeakCount>5</maxWeakCount>
      <stageThreshold>-2.6789149641990662e-01</stageThreshold>
      <weakClassifiers>
        <_>
          <internalNodes>
            0 -1 19 2.0402416586875916e-02</internalNodes>
          <leafValues>
            5.7831323146820068e-01 -8.6274510622024536e-01</leafValues></_>
        <_>
          <internalNodes>
            0 -1 62 -1.4321055263280869e-02</internalNodes>
          <leafValues>
            7.6885771751403809e-01 -3.9539298415184021e-01</leafValues></_>
        <_>
          <internalNodes>
            0 -1 52 -1.7327375244349241e-03</internalNodes>
          <leafValues>
            4.2336952686309814e-01 -7.9030758142471313e-01</leafValues></_>
        <_>
          <internalNodes>
            0 -1 15 -1.1507559567689896e-02</internalNodes>
          <leafValues>
            3.0951711535453796e-01 -9.5241731405258179e-01</leafValues></_>
        <_>
          <internalNodes>
            0 -1 13 -3.2032247632741928e-02</internalNodes>
          <leafValues>
            -9.5486640930175781e-01 3.0678638815879822e-01</leafValues></_></weakClassifiers></_>
    <!-- stage 12 -->
    <_>
      <maxWeakCount>3</maxWeakCount>
      <stageThreshold>-2.5710679590702057e-02</stageThreshold>
      <weakClassifiers>
        <_>
          <internalNodes>
            0 -1 8 4.8498213291168213e-02</internalNodes>
          <leafValues>
            5.5882352590560913e-01 -9.4444441795349121e-01</leafValues></_>
        <_>
          <internalNodes>
            0 -1 23 -1.8941180314868689e-03</internalNodes>
          <leafValues>
            5.7145375013351440e-01 -5.3645765781402588e-01</leafValues></_>
        <_>
          <internalNodes>
            0 -1 44 1.6762991435825825e-03</internalNodes>
          <leafValues>
            3.4728002548217773e-01 -9.8470228910446167e-01</leafValues></_></weakClassifiers></_>
    <!-- stage 13 -->
    <_>
      <maxWeakCount>6</maxWeakCount>
      <stageThreshold>-5.7054829597473145e-01</stageThreshold>
      <weakClassifiers>
        <_>
          <internalNodes>
            0 -1 18 9.4781490042805672e-04</internalNodes>
          <leafValues>
            -7.9824560880661011e-01 5.9876543283462524e-01</leafValues></_>
        <_>
          <internalNodes>
            0 -1 1 5.4705077782273293e-03</internalNodes>
          <leafValues>
            3.3579090237617493e-01 -9.3489634990692139e-01</leafValues></_>
        <_>
          <internalNodes>
            0 -1 35 5.1014892756938934e-02</internalNodes>
          <leafValues>
            -4.0680158138275146e-01 8.1450521945953369e-01</leafValues></_>
        <_>
          <internalNodes>
            0 -1 42 -2.5524687021970749e-02</internalNodes>
          <leafValues>
            -9.6553957462310791e-01 3.4107390046119690e-01</leafValues></_>
        <_>
          <internalNodes>
            0 -1 61 -1.6606997698545456e-02</internalNodes>
          <leafValues>
            7.8324288129806519e-01 -4.2091882228851318e-01</leafValues></_>
        <_>
          <internalNodes>
            0 -1 50 -2.1385119762271643e-03</internalNodes>
          <leafValues>
            3.7855285406112671e-01 -8.0483591556549072e-01</leafValues></_></weakClassifiers></_>
    <!-- stage 14 -->
    <_>
      <maxWeakCount>7</maxWeakCount>
      <stageThreshold>-8.4424954652786255e-01</stageThreshold>
      <weakClassifiers>
        <_>
          <internalNodes>
            0 -1 54 -1.3379214797168970e-03</internalNodes>
          <leafValues>
            -9.8709678649902344e-01 5.2918660640716553e-01</leafValues></_>
        <_>
          <internalNodes>
            0 -1 60 -1.5776792541146278e-02</internalNodes>
          <leafValues>
            7.6151216030120850e-01 -3.7124872207641602e-01</leafValues></_>
        <_>
          <internalNodes>
            0 -1 53 -2.5350440409965813e-04</internalNodes>
          <leafValues>
            4.9304497241973877e-01 -7.1341043710708618e-01</leafValues></_>
        <_>
          <internalNodes>
            0 -1 3 3.8130484521389008e-02</internalNodes>
          <leafValues>
            -5.8199125528335571e-01 5.2109575271606445e-01</leafValues></_>
        <_>
          <internalNodes>
            0 -1 45 1.0889296978712082e-01</internalNodes>
          <leafValues>
            -3.6589670181274414e-01 8.4488058090209961e-01</leafValues></_>
        <_>
          <internalNodes>
            0 -1 11 3.0811404576525092e-04</internalNodes>
          <leafValues>
            3.9238786697387695e-01 -7.9769814014434814e-01</leafValues></_>
        <_>
          <internalNodes>
            0 -1 20 -8.6485996143892407e-04</internalNodes>
          <leafValues>
            -9.4193822145462036e-01 2.6672309637069702e-01</leafValues></_></weakClassifiers></_></stages>
  <features>
    <_>
      <rects>
        <_>
          0 9 4 3 -1.</_>
        <_>
          2 9 2 3 2.</_></rects>
      <tilted>0</tilted></_>
    <_>
      <rects>
        <_>
          1 5 17 12 -1.</_>
        <_>
          1 11 17 6 2.</_></rects>
      <tilted>0</tilted></_>
    <_>
      <rects>
        <_>
          1 10 18 4 -1.</_>
        <_>
          7 10 6 4 3.</_></rects>
      <tilted>0</tilted></_>
    <_>
      <rects>
        <_>
          1 12 12 6 -1.</_>
        <_>
          7 12 6 6 2.</_></rects>
      <tilted>0</tilted></_>
    <_>
      <rects>
        <_>
          2 8 15 6 -1.</_>
        <_>
          7 8 5 6 3.</_></rects>
      <tilted>0</tilted></_>
    <_>
      <rects>
        <_>
          2 9 16 8 -1.</_>
        <_>
          2 13 16 4 2.</_></rects>
      <tilted>0</tilted></_>
    <_>
      <rects>
        <_>
          2 10 8 4 -1.</_>
        <_>
          6 10 4 4 2.</_></rects>
      <tilted>0</tilted></_>
    <_>
      <rects>
        <_>
          3 6 8 9 -1.</_>
        <_>
          7 6 4 9 2.</_></rects>
      <tilted>0</tilted></_>
    <_>
      <rects>
        <_>
          3 8 10 7 -1.</_>
        <_>
          8 8 5 7 2.</_></rects>
      <tilted>0</tilted></_>
    <_>
      <rects>
        <_>
          4 5 12 10 -1.</_>
        <_>
          10 5 6 10 2.</_></rects>
      <tilted>0</tilted></_>
    <_>
      <rects>
        <_>
          5 3 13 6 -1.</_>
        <_>
          5 5 13 2 3.</_></rects>
      <tilted>0</tilted></_>
    <_>
      <rects>
        <_>
          5 5 6 1 -1.</_>
        <_>
          7 5 2 1 3.</_></rects>
      <tilted>0</tilted></_>
    <_>
      <rects>
        <_>
          5 5 12 5 -1.</_>
        <_>
          11 5 6 5 2.</_></rects>
      <tilted>0</tilted></_>
    <_>
      <rects>
        <_>
          5 5 6 12 -1.</_>
        <_>
          5 11 6 6 2.</_></rects>
      <tilted>0</tilted></_>
    <_>
      <rects>
        <_>
          5 8 8 6 -1.</_>
        <_>
          9 8 4 6 2.</_></rects>
      <tilted>0</tilted></_>
    <_>
      <rects>
        <_>
          5 8 9 10 -1.</_>
        <_>
          5 13 9 5 2.</_></rects>
      <tilted>0</tilted></_>
    <_>
      <rects>
        <_>
          5 16 6 1 -1.</_>
        <_>
          8 16 3 1 2.</_></rects>
      <tilted>0</tilted></_>
    <_>
      <rects>
        <_>
          6 3 2 10 -1.</_>
        <_>
          6 8 2 5 2.</_></rects>
      <tilted>0</tilted></_>
    <_>
      <rects>
        <_>
          6 5 9 3 -1.</_>
        <_>
          6 6 9 1 3.</_></rects>
      <tilted>0</tilted></_>
    <_>
      <rects>
        <_>
          6 11 10 6 -1.</_>
        <_>
          11 11 5 6 2.</_></rects>
      <tilted>0</tilted></_>
    <_>
      <rects>
        <_>
          7 4 1 3 -1.</_>
        <_>
          7 5 1 1 3.</_></rects>
      <tilted>0</tilted></_>
    <_>
      <rects>
        <_>
          7 7 6 9 -1.</_>
        <_>
          7 10 6 3 3.</_></rects>
      <tilted>0</tilted></_>
    <_>
      <rects>
        <_>
          7 8 5 4 -1.</_>
        <_>
          7 10 5 2 2.</_></rects>
      <tilted>0</tilted></_>
    <_>
      <rects>
        <_>
          7 11 2 2 -1.</_>
        <_>
          7 12 2 1 2.</_></rects>
      <tilted>0</tilted></_>
    <_>
      <rects>
        <_>
          7 11 6 6 -1.</_>
        <_>
          7 13 6 2 3.</_></rects>
      <tilted>0</tilted></_>
    <_>
      <rects>
        <_>
          8 1 7 9 -1.</_>
        <_>
          8 4 7 3 3.</_></rects>
      <tilted>0</tilted></_>
    <_>
      <rects>
        <_>
          8 2 6 14 -1.</_>
        <_>
          8 2 3 7 2.</_>
        <_>
          11 9 3 7 2.</_></rects>
      <tilted>0</tilted></_>
    <_>
      <rects>
        <_>
          8 3 3 3 -1.</_>
        <_>
          8 4 3 1 3.</_></rects>
      <tilted>0</tilted></_>
    <_>
      <rects>
        <_>
          8 3 8 6 -1.</_>
        <_>
          8 5 8 2 3.</_></rects>
      <tilted>0</tilted></_>
    <_>
      <rects>
        <_>
          8 4 2 2 -1.</_>
        <_>
          8 5 2 1 2.</_></rects>
      <tilted>0</tilted></_>
    <_>
      <rects>
        <_>
          8 4 6 6 -1.</_>
        <_>
          11 4 3 6 2.</_></rects>
      <tilted>0</tilted></_>
    <_>
      <rects>
        <_>
          8 8 10 7 -1.</_>
        <_>
          13 8 5 7 2.</_></rects>
      <tilted>0</tilted></_>
    <_>
      <rects>
        <_>
          8 10 5 6 -1.</_>
        <_>
          8 13 5 3 2.</_></rects>
      <tilted>0</tilted></_>
    <_>
      <rects>
        <_>
          8 11 4 6 -1.</_>
        <_>
          8 13 4 2 3.</_></rects>
      <tilted>0</tilted></_>
    <_>
      <rects>
        <_>
          8 14 4 6 -1.</_>
        <_>
          8 16 4 2 3.</_></rects>
      <tilted>0</tilted></_>
    <_>
      <rects>
        <_>
          9 1 7 4 -1.</_>
        <_>
          9 3 7 2 2.</_></rects>
      <tilted>0</tilted></_>
    <_>
      <rects>
        <_>
          9 1 7 9 -1.</_>
        <_>
          9 4 7 3 3.</_></rects>
      <tilted>0</tilted></_>
    <_>
      <rects>
        <_>
          9 2 3 4 -1.</_>
        <_>
          9 4 3 2 2.</_></rects>
      <tilted>0</tilted></_>
    <_>
      <rects>
        <_>
          9 2 6 17 -1.</_>
        <_>
          12 2 3 17 2.</_></rects>
      <tilted>0</tilted></_>
    <_>
      <rects>
        <_>
          9 3 3 6 -1.</_>
        <_>
          9 5 3 2 3.</_></rects>
      <tilted>0</tilted></_>
    <_>
      <rects>
        <_>
          9 3 5 6 -1.</_>
        <_>
          9 5 5 2 3.</_></rects>
      <tilted>0</tilted></_>
    <_>
      <rects>
        <_>
          9 6 8 8 -1.</_>
        <_>
          9 6 4 4 2.</_>
        <_>
          13 10 4 4 2.</_></rects>
      <tilted>0</tilted></_>
    <_>
      <rects>
        <_>
          9 7 3 10 -1.</_>
        <_>
          9 12 3 5 2.</_></rects>
      <tilted>0</tilted></_>
    <_>
      <rects>
        <_>
          9 7 9 7 -1.</_>
        <_>
          12 7 3 7 3.</_></rects>
      <tilted>0</tilted></_>
    <_>
      <rects>
        <_>
          9 12 3 1 -1.</_>
        <_>
          10 12 1 1 3.</_></rects>
      <tilted>0</tilted></_>
    <_>
      <rects>
        <_>
          10 0 5 9 -1.</_>
        <_>
          10 3 5 3 3.</_></rects>
      <tilted>0</tilted></_>
    <_>
      <rects>
        <_>
          10 2 3 2 -1.</_>
        <_>
          10 3 3 1 2.</_></rects>
      <tilted>0</tilted></_>
    <_>
      <rects>
        <_>
          10 6 1 12 -1.</_>
        <_>
          10 10 1 4 3.</_></rects>
      <tilted>0</tilted></_>
    <_>
      <rects>
        <_>
          10 14 2 6 -1.</_>
        <_>
          10 16 2 2 3.</_></rects>
      <tilted>0</tilted></_>
    <_>
      <rects>
        <_>
          11 4 5 6 -1.</_>
        <_>
          11 6 5 2 3.</_></rects>
      <tilted>0</tilted></_>
    <_>
      <rects>
        <_>
          11 8 1 10 -1.</_>
        <_>
          11 13 1 5 2.</_></rects>
      <tilted>0</tilted></_>
    <_>
      <rects>
        <_>
          12 0 3 9 -1.</_>
        <_>
          12 3 3 3 3.</_></rects>
      <tilted>0</tilted></_>
    <_>
      <rects>
        <_>
          12 4 2 12 -1.</_>
        <_>
          12 4 1 6 2.</_>
        <_>
          13 10 1 6 2.</_></rects>
      <tilted>0</tilted></_>
    <_>
      <rects>
        <_>
          12 12 1 3 -1.</_>
        <_>
          12 13 1 1 3.</_></rects>
      <tilted>0</tilted></_>
    <_>
      <rects>
        <_>
          13 4 2 4 -1.</_>
        <_>
          13 4 1 2 2.</_>
        <_>
          14 6 1 2 2.</_></rects>
      <tilted>0</tilted></_>
    <_>
      <rects>
        <_>
          14 5 1 12 -1.</_>
        <_>
          14 11 1 6 2.</_></rects>
      <tilted>0</tilted></_>
    <_>
      <rects>
        <_>
          14 6 6 8 -1.</_>
        <_>
          16 6 2 8 3.</_></rects>
      <tilted>0</tilted></_>
    <_>
      <rects>
        <_>
          14 8 6 2 -1.</_>
        <_>
          16 8 2 2 3.</_></rects>
      <tilted>0</tilted></_>
    <_>
      <rects>
        <_>
          14 8 4 5 -1.</_>
        <_>
          16 8 2 5 2.</_></rects>
      <tilted>0</tilted></_>
    <_>
      <rects>
        <_>
          16 10 4 1 -1.</_>
        <_>
          18 10 2 1 2.</_></rects>
      <tilted>0</tilted></_>
    <_>
      <rects>
        <_>
          18 4 2 9 -1.</_>
        <_>
          19 4 1 9 2.</_></rects>
      <tilted>0</tilted></_>
    <_>
      <rects>
        <_>
          18 6 2 6 -1.</_>
        <_>
          19 6 1 6 2.</_></rects>
      <tilted>0</tilted></_>
    <_>
      <rects>
        <_>
          18 6 2 10 -1.</_>
        <_>
          19 6 1 10 2.</_></rects>
      <tilted>0</tilted></_>
    <_>
      <rects>
        <_>
          18 8 2 5 -1.</_>
        <_>
          19 8 1 5 2.</_></rects>
      <tilted>0</tilted></_></features></cascade>
</opencv_storage>
