<?xml version="1.0"?>
<opencv_storage>
<cascade>
  <stageType>BOOST</stageType>
  <featureType>HAAR</featureType>
  <height>20</height>
  <width>20</width>
  <stageParams>
    <boostType>GAB</boostType>
    <minHitRate>9.9500000476837158e-01</minHitRate>
    <maxFalseAlarm>5.0000000000000000e-01</maxFalseAlarm>
    <weightTrimRate>9.4999999999999996e-01</weightTrimRate>
    <maxDepth>1</maxDepth>
    <maxWeakCount>100</maxWeakCount></stageParams>
  <featureParams>
    <maxCatCount>0</maxCatCount>
    <featSize>1</featSize>
    <mode>BASIC</mode></featureParams>
  <stageNum>16</stageNum>
  <stages>
    <!-- stage 0 -->
    <_>
      <maxWeakCount>2</maxWeakCount>
      <stageThreshold>-1.5245248377323151e-01</stageThreshold>
      <weakClassifiers>
        <_>
          <internalNodes>
            0 -1 31 -5.1601380109786987e-02</internalNodes>
          <leafValues>
            8.8321936130523682e-01 -9.7496873140335083e-01</leafValues></_>
        <_>
          <internalNodes>
            0 -1 25 4.0415681898593903e-02</internalNodes>
          <leafValues>
            -8.6644631624221802e-01 8.2251620292663574e-01</leafValues></_></weakClassifiers></_>
    <!-- stage 1 -->
    <_>
      <maxWeakCount>2</maxWeakCount>
      <stageThreshold>-1.9517816603183746e-01</stageThreshold>
      <weakClassifiers>
        <_>
          <internalNodes>
            0 -1 6 9.4373479485511780e-02</internalNodes>
          <leafValues>
            -8.0891722440719604e-01 8.0156660079956055e-01</leafValues></_>
        <_>
          <internalNodes>
            0 -1 16 3.5210605710744858e-03</internalNodes>
          <leafValues>
            -8.1324261426925659e-01 6.1373901367187500e-01</leafValues></_></weakClassifiers></_>
    <!-- stage 2 -->
    <_>
      <maxWeakCount>4</maxWeakCount>
      <stageThreshold>-1.3223532438278198e+00</stageThreshold>
      <weakClassifiers>
        <_>
          <internalNodes>
            0 -1 12 -1.5301796793937683e-01</internalNodes>
          <leafValues>
            7.2434020042419434e-01 -8.8990825414657593e-01</leafValues></_>
        <_>
          <internalNodes>
            0 -1 23 1.5945428982377052e-02</internalNodes>
          <leafValues>
            -6.5345233678817749e-01 7.3195099830627441e-01</leafValues></_>
        <_>
          <internalNodes>
            0 -1 32 -2.9759893193840981e-02</internalNodes>
          <leafValues>
            5.4771780967712402e-01 -8.6464995145797729e-01</leafValues></_>
        <_>
          <internalNodes>
            0 -1 3 2.9326451942324638e-02</internalNodes>
          <leafValues>
            -5.2859109640121460e-01 7.5439238548278809e-01</leafValues></_></weakClassifiers></_>
    <!-- stage 3 -->
    <_>
      <maxWeakCount>3</maxWeakCount>
      <stageThreshold>-9.3478238582611084e-01</stageThreshold>
      <weakClassifiers>
        <_>
          <internalNodes>
            0 -1 44 1.6494566807523370e-04</internalNodes>
          <leafValues>
            -8.9898991584777832e-01 6.8091166019439697e-01</leafValues></_>
        <_>
          <internalNodes>
            0 -1 2 2.1146401762962341e-01</internalNodes>
          <leafValues>
            -7.7925562858581543e-01 5.1307201385498047e-01</leafValues></_>
        <_>
          <internalNodes>
            0 -1 30 4.2616210877895355e-02</internalNodes>
          <leafValues>
            -8.3643841743469238e-01 5.1249635219573975e-01</leafValues></_></weakClassifiers></_>
    <!-- stage 4 -->
    <_>
      <maxWeakCount>3</maxWeakCount>
      <stageThreshold>1.7656110227108002e-01</stageThreshold>
      <weakClassifiers>
        <_>
          <internalNodes>
            0 -1 17 -3.5799146280623972e-04</internalNodes>
          <leafValues>
            6.6889953613281250e-01 -8.1639343500137329e-01</leafValues></_>
        <_>
          <internalNodes>
            0 -1 0 3.7913724780082703e-01</internalNodes>
          <leafValues>
            -7.6053059101104736e-01 5.5880731344223022e-01</leafValues></_>
        <_>
          <internalNodes>
            0 -1 9 -2.7499478310346603e-02</internalNodes>
          <leafValues>
            4.3414720892906189e-01 -9.0795767307281494e-01</leafValues></_></weakClassifiers></_>
    <!-- stage 5 -->
    <_>
      <maxWeakCount>1</maxWeakCount>
      <stageThreshold>6.1183327436447144e-01</stageThreshold>
      <weakClassifiers>
        <_>
          <internalNodes>
            0 -1 47 -1.3241525739431381e-03</internalNodes>
          <leafValues>
            6.1183327436447144e-01 -9.9147123098373413e-01</leafValues></_></weakClassifiers></_>
    <!-- stage 6 -->
    <_>
      <maxWeakCount>3</maxWeakCount>
      <stageThreshold>-8.5638540983200073e-01</stageThreshold>
      <weakClassifiers>
        <_>
          <internalNodes>
            0 -1 13 3.9236588054336607e-04</internalNodes>
          <leafValues>
            -8.9909911155700684e-01 6.5221446752548218e-01</leafValues></_>
        <_>
          <internalNodes>
            0 -1 14 -2.5559940695529804e-05</internalNodes>
          <leafValues>
            4.2887115478515625e-01 -9.4558817148208618e-01</leafValues></_>
        <_>
          <internalNodes>
            0 -1 11 -3.4962877631187439e-02</internalNodes>
          <leafValues>
            7.3586410284042358e-01 -5.6301176548004150e-01</leafValues></_></weakClassifiers></_>
    <!-- stage 7 -->
    <_>
      <maxWeakCount>3</maxWeakCount>
      <stageThreshold>-7.8418421745300293e-01</stageThreshold>
      <weakClassifiers>
        <_>
          <internalNodes>
            0 -1 40 4.6214517205953598e-03</internalNodes>
          <leafValues>
            -9.0630632638931274e-01 6.5407925844192505e-01</leafValues></_>
        <_>
          <internalNodes>
            0 -1 14 -2.5559940695529804e-05</internalNodes>
          <leafValues>
            4.5303788781166077e-01 -9.4119685888290405e-01</leafValues></_>
        <_>
          <internalNodes>
            0 -1 19 3.5934172570705414e-02</internalNodes>
          <leafValues>
            -4.9706658720970154e-01 8.2827997207641602e-01</leafValues></_></weakClassifiers></_>
    <!-- stage 8 -->
    <_>
      <maxWeakCount>3</maxWeakCount>
      <stageThreshold>-9.2887419462203979e-01</stageThreshold>
      <weakClassifiers>
        <_>
          <internalNodes>
            0 -1 43 2.7535210829228163e-03</internalNodes>
          <leafValues>
            6.5504413843154907e-01 -9.2714023590087891e-01</leafValues></_>
        <_>
          <internalNodes>
            0 -1 29 -1.0844322852790356e-02</internalNodes>
          <leafValues>
            5.3465706110000610e-01 -7.8392827510833740e-01</leafValues></_>
        <_>
          <internalNodes>
            0 -1 8 1.3508365955203772e-03</internalNodes>
          <leafValues>
            -7.9999005794525146e-01 4.7962412238121033e-01</leafValues></_></weakClassifiers></_>
    <!-- stage 9 -->
    <_>
      <maxWeakCount>4</maxWeakCount>
      <stageThreshold>-7.9275631904602051e-01</stageThreshold>
      <weakClassifiers>
        <_>
          <internalNodes>
            0 -1 24 -5.9651532210409641e-03</internalNodes>
          <leafValues>
            6.8893224000930786e-01 -7.9044681787490845e-01</leafValues></_>
        <_>
          <internalNodes>
            0 -1 38 1.7736535519361496e-02</internalNodes>
          <leafValues>
            -8.0333769321441650e-01 4.9975994229316711e-01</leafValues></_>
        <_>
          <internalNodes>
            0 -1 50 6.6359899938106537e-04</internalNodes>
          <leafValues>
            -8.2009935379028320e-01 4.8607289791107178e-01</leafValues></_>
        <_>
          <internalNodes>
            0 -1 48 -2.3858472704887390e-03</internalNodes>
          <leafValues>
            -8.9300686120986938e-01 3.1495535373687744e-01</leafValues></_></weakClassifiers></_>
    <!-- stage 10 -->
    <_>
      <maxWeakCount>4</maxWeakCount>
      <stageThreshold>-2.4372170865535736e-01</stageThreshold>
      <weakClassifiers>
        <_>
          <internalNodes>
            0 -1 39 -4.2675627628341317e-04</internalNodes>
          <leafValues>
            5.9764915704727173e-01 -8.6475408077239990e-01</leafValues></_>
        <_>
          <internalNodes>
            0 -1 22 3.5500895231962204e-02</internalNodes>
          <leafValues>
            -5.1925164461135864e-01 6.7644643783569336e-01</leafValues></_>
        <_>
          <internalNodes>
            0 -1 49 -8.8023045100271702e-04</internalNodes>
          <leafValues>
            4.1975751519203186e-01 -9.0372949838638306e-01</leafValues></_>
        <_>
          <internalNodes>
            0 -1 4 3.5611599683761597e-02</internalNodes>
          <leafValues>
            -4.7517159581184387e-01 7.7801489830017090e-01</leafValues></_></weakClassifiers></_>
    <!-- stage 11 -->
    <_>
      <maxWeakCount>4</maxWeakCount>
      <stageThreshold>-8.9403808116912842e-01</stageThreshold>
      <weakClassifiers>
        <_>
          <internalNodes>
            0 -1 28 4.1108552366495132e-02</internalNodes>
          <leafValues>
            -7.7928692102432251e-01 6.4377075433731079e-01</leafValues></_>
        <_>
          <internalNodes>
            0 -1 21 -1.8247743719257414e-04</internalNodes>
          <leafValues>
            3.7010192871093750e-01 -9.3835222721099854e-01</leafValues></_>
        <_>
          <internalNodes>
            0 -1 46 -1.4368089614436030e-03</internalNodes>
          <leafValues>
            -9.1463953256607056e-01 3.1777366995811462e-01</leafValues></_>
        <_>
          <internalNodes>
            0 -1 34 -7.9143443144857883e-04</internalNodes>
          <leafValues>
            2.8107884526252747e-01 -9.1723030805587769e-01</leafValues></_></weakClassifiers></_>
    <!-- stage 12 -->
    <_>
      <maxWeakCount>4</maxWeakCount>
      <stageThreshold>-7.0582538843154907e-01</stageThreshold>
      <weakClassifiers>
        <_>
          <internalNodes>
            0 -1 42 1.4546271413564682e-03</internalNodes>
          <leafValues>
            5.8458811044692993e-01 -9.5022624731063843e-01</leafValues></_>
        <_>
          <internalNodes>
            0 -1 18 -1.7253453552257270e-04</internalNodes>
          <leafValues>
            -9.2914938926696777e-01 3.5670292377471924e-01</leafValues></_>
        <_>
          <internalNodes>
            0 -1 15 6.8679470568895340e-03</internalNodes>
          <leafValues>
            -9.3013334274291992e-01 2.8938776254653931e-01</leafValues></_>
        <_>
          <internalNodes>
            0 -1 37 7.1324687451124191e-03</internalNodes>
          <leafValues>
            -7.1698307991027832e-01 4.1569989919662476e-01</leafValues></_></weakClassifiers></_>
    <!-- stage 13 -->
    <_>
      <maxWeakCount>3</maxWeakCount>
      <stageThreshold>9.5357961952686310e-02</stageThreshold>
      <weakClassifiers>
        <_>
          <internalNodes>
            0 -1 35 -4.3246767017990351e-04</internalNodes>
          <leafValues>
            -9.7716897726058960e-01 5.8709108829498291e-01</leafValues></_>
        <_>
          <internalNodes>
            0 -1 10 2.9531023465096951e-03</internalNodes>
          <leafValues>
            -7.9770803451538086e-01 4.2932561039924622e-01</leafValues></_>
        <_>
          <internalNodes>
            0 -1 36 -1.5723910182714462e-03</internalNodes>
          <leafValues>
            -9.1755461692810059e-01 3.0597490072250366e-01</leafValues></_></weakClassifiers></_>
    <!-- stage 14 -->
    <_>
      <maxWeakCount>4</maxWeakCount>
      <stageThreshold>-7.0797330141067505e-01</stageThreshold>
      <weakClassifiers>
        <_>
          <internalNodes>
            0 -1 33 -9.7642478067427874e-04</internalNodes>
          <leafValues>
            -9.3488371372222900e-01 5.7356828451156616e-01</leafValues></_>
        <_>
          <internalNodes>
            0 -1 5 1.3059584423899651e-02</internalNodes>
          <leafValues>
            -6.6458344459533691e-01 4.8813974857330322e-01</leafValues></_>
        <_>
          <internalNodes>
            0 -1 20 1.2970222160220146e-02</internalNodes>
          <leafValues>
            -9.2632699012756348e-01 3.3506423234939575e-01</leafValues></_>
        <_>
          <internalNodes>
            0 -1 41 -5.3480820497497916e-04</internalNodes>
          <leafValues>
            3.0936884880065918e-01 -8.5517454147338867e-01</leafValues></_></weakClassifiers></_>
    <!-- stage 15 -->
    <_>
      <maxWeakCount>5</maxWeakCount>
      <stageThreshold>-9.7099459171295166e-01</stageThreshold>
      <weakClassifiers>
        <_>
          <internalNodes>
            0 -1 27 1.0916702449321747e-02</internalNodes>
          <leafValues>
            6.1243802309036255e-01 -9.5426195859909058e-01</leafValues></_>
        <_>
          <internalNodes>
            0 -1 1 4.7979295253753662e-02</internalNodes>
          <leafValues>
            -4.6308118104934692e-01 7.7160334587097168e-01</leafValues></_>
        <_>
          <internalNodes>
            0 -1 45 1.0611189063638449e-03</internalNodes>
          <leafValues>
            -7.8714257478713989e-01 4.1628387570381165e-01</leafValues></_>
        <_>
          <internalNodes>
            0 -1 7 6.1685591936111450e-04</internalNodes>
          <leafValues>
            -6.8260943889617920e-01 4.3105635046958923e-01</leafValues></_>
        <_>
          <internalNodes>
            0 -1 26 2.1880730055272579e-03</internalNodes>
          <leafValues>
            -8.7074965238571167e-01 3.4940055012702942e-01</leafValues></_></weakClassifiers></_></stages>
  <features>
    <_>
      <rects>
        <_>
          0 3 18 15 -1.</_>
        <_>
          6 3 6 15 3.</_></rects>
      <tilted>0</tilted></_>
    <_>
      <rects>
        <_>
          0 4 4 13 -1.</_>
        <_>
          2 4 2 13 2.</_></rects>
      <tilted>0</tilted></_>
    <_>
      <rects>
        <_>
          0 4 18 7 -1.</_>
        <_>
          6 4 6 7 3.</_></rects>
      <tilted>0</tilted></_>
    <_>
      <rects>
        <_>
          0 5 4 11 -1.</_>
        <_>
          2 5 2 11 2.</_></rects>
      <tilted>0</tilted></_>
    <_>
      <rects>
        <_>
          0 7 4 7 -1.</_>
        <_>
          2 7 2 7 2.</_></rects>
      <tilted>0</tilted></_>
    <_>
      <rects>
        <_>
          0 15 12 1 -1.</_>
        <_>
          4 15 4 1 3.</_></rects>
      <tilted>0</tilted></_>
    <_>
      <rects>
        <_>
          1 8 18 3 -1.</_>
        <_>
          7 8 6 3 3.</_></rects>
      <tilted>0</tilted></_>
    <_>
      <rects>
        <_>
          2 11 5 2 -1.</_>
        <_>
          2 12 5 1 2.</_></rects>
      <tilted>0</tilted></_>
    <_>
      <rects>
        <_>
          2 14 6 2 -1.</_>
        <_>
          2 14 3 1 2.</_>
        <_>
          5 15 3 1 2.</_></rects>
      <tilted>0</tilted></_>
    <_>
      <rects>
        <_>
          3 8 12 6 -1.</_>
        <_>
          3 11 12 3 2.</_></rects>
      <tilted>0</tilted></_>
    <_>
      <rects>
        <_>
          3 13 4 4 -1.</_>
        <_>
          3 13 2 2 2.</_>
        <_>
          5 15 2 2 2.</_></rects>
      <tilted>0</tilted></_>
    <_>
      <rects>
        <_>
          3 16 13 4 -1.</_>
        <_>
          3 18 13 2 2.</_></rects>
      <tilted>0</tilted></_>
    <_>
      <rects>
        <_>
          4 6 14 10 -1.</_>
        <_>
          11 6 7 10 2.</_></rects>
      <tilted>0</tilted></_>
    <_>
      <rects>
        <_>
          4 12 4 2 -1.</_>
        <_>
          4 13 4 1 2.</_></rects>
      <tilted>0</tilted></_>
    <_>
      <rects>
        <_>
          4 13 2 1 -1.</_>
        <_>
          5 13 1 1 2.</_></rects>
      <tilted>0</tilted></_>
    <_>
      <rects>
        <_>
          5 3 6 8 -1.</_>
        <_>
          7 3 2 8 3.</_></rects>
      <tilted>0</tilted></_>
    <_>
      <rects>
        <_>
          5 12 3 4 -1.</_>
        <_>
          5 14 3 2 2.</_></rects>
      <tilted>0</tilted></_>
    <_>
      <rects>
        <_>
          5 13 2 2 -1.</_>
        <_>
          6 13 1 2 2.</_></rects>
      <tilted>0</tilted></_>
    <_>
      <rects>
        <_>
          5 16 6 1 -1.</_>
        <_>
          7 16 2 1 3.</_></rects>
      <tilted>0</tilted></_>
    <_>
      <rects>
        <_>
          6 0 7 4 -1.</_>
        <_>
          6 2 7 2 2.</_></rects>
      <tilted>0</tilted></_>
    <_>
      <rects>
        <_>
          6 7 6 11 -1.</_>
        <_>
          8 7 2 11 3.</_></rects>
      <tilted>0</tilted></_>
    <_>
      <rects>
        <_>
          6 13 2 3 -1.</_>
        <_>
          7 13 1 3 2.</_></rects>
      <tilted>0</tilted></_>
    <_>
      <rects>
        <_>
          6 14 8 6 -1.</_>
        <_>
          6 16 8 2 3.</_></rects>
      <tilted>0</tilted></_>
    <_>
      <rects>
        <_>
          7 1 7 6 -1.</_>
        <_>
          7 3 7 2 3.</_></rects>
      <tilted>0</tilted></_>
    <_>
      <rects>
        <_>
          7 4 7 6 -1.</_>
        <_>
          7 6 7 2 3.</_></rects>
      <tilted>0</tilted></_>
    <_>
      <rects>
        <_>
          7 5 6 9 -1.</_>
        <_>
          7 8 6 3 3.</_></rects>
      <tilted>0</tilted></_>
    <_>
      <rects>
        <_>
          7 12 6 2 -1.</_>
        <_>
          9 12 2 2 3.</_></rects>
      <tilted>0</tilted></_>
    <_>
      <rects>
        <_>
          7 12 6 4 -1.</_>
        <_>
          9 12 2 4 3.</_></rects>
      <tilted>0</tilted></_>
    <_>
      <rects>
        <_>
          8 1 3 18 -1.</_>
        <_>
          8 7 3 6 3.</_></rects>
      <tilted>0</tilted></_>
    <_>
      <rects>
        <_>
          8 4 5 6 -1.</_>
        <_>
          8 6 5 2 3.</_></rects>
      <tilted>0</tilted></_>
    <_>
      <rects>
        <_>
          8 5 6 9 -1.</_>
        <_>
          8 8 6 3 3.</_></rects>
      <tilted>0</tilted></_>
    <_>
      <rects>
        <_>
          8 7 8 5 -1.</_>
        <_>
          12 7 4 5 2.</_></rects>
      <tilted>0</tilted></_>
    <_>
      <rects>
        <_>
          8 9 5 9 -1.</_>
        <_>
          8 12 5 3 3.</_></rects>
      <tilted>0</tilted></_>
    <_>
      <rects>
        <_>
          8 12 3 4 -1.</_>
        <_>
          9 12 1 4 3.</_></rects>
      <tilted>0</tilted></_>
    <_>
      <rects>
        <_>
          9 10 2 7 -1.</_>
        <_>
          10 10 1 7 2.</_></rects>
      <tilted>0</tilted></_>
    <_>
      <rects>
        <_>
          9 12 3 2 -1.</_>
        <_>
          10 12 1 2 3.</_></rects>
      <tilted>0</tilted></_>
    <_>
      <rects>
        <_>
          9 12 2 4 -1.</_>
        <_>
          9 12 1 2 2.</_>
        <_>
          10 14 1 2 2.</_></rects>
      <tilted>0</tilted></_>
    <_>
      <rects>
        <_>
          10 1 3 6 -1.</_>
        <_>
          10 3 3 2 3.</_></rects>
      <tilted>0</tilted></_>
    <_>
      <rects>
        <_>
          10 2 3 18 -1.</_>
        <_>
          10 8 3 6 3.</_></rects>
      <tilted>0</tilted></_>
    <_>
      <rects>
        <_>
          10 3 2 3 -1.</_>
        <_>
          11 3 1 3 2.</_></rects>
      <tilted>0</tilted></_>
    <_>
      <rects>
        <_>
          10 7 4 10 -1.</_>
        <_>
          10 7 2 5 2.</_>
        <_>
          12 12 2 5 2.</_></rects>
      <tilted>0</tilted></_>
    <_>
      <rects>
        <_>
          10 9 1 6 -1.</_>
        <_>
          10 11 1 2 3.</_></rects>
      <tilted>0</tilted></_>
    <_>
      <rects>
        <_>
          10 12 2 4 -1.</_>
        <_>
          10 12 1 2 2.</_>
        <_>
          11 14 1 2 2.</_></rects>
      <tilted>0</tilted></_>
    <_>
      <rects>
        <_>
          10 12 3 5 -1.</_>
        <_>
          11 12 1 5 3.</_></rects>
      <tilted>0</tilted></_>
    <_>
      <rects>
        <_>
          10 15 1 2 -1.</_>
        <_>
          10 16 1 1 2.</_></rects>
      <tilted>0</tilted></_>
    <_>
      <rects>
        <_>
          10 15 5 3 -1.</_>
        <_>
          10 16 5 1 3.</_></rects>
      <tilted>0</tilted></_>
    <_>
      <rects>
        <_>
          11 12 3 2 -1.</_>
        <_>
          12 12 1 2 3.</_></rects>
      <tilted>0</tilted></_>
    <_>
      <rects>
        <_>
          11 12 2 5 -1.</_>
        <_>
          12 12 1 5 2.</_></rects>
      <tilted>0</tilted></_>
    <_>
      <rects>
        <_>
          11 12 3 5 -1.</_>
        <_>
          12 12 1 5 3.</_></rects>
      <tilted>0</tilted></_>
    <_>
      <rects>
        <_>
          13 9 2 2 -1.</_>
        <_>
          14 9 1 2 2.</_></rects>
      <tilted>0</tilted></_>
    <_>
      <rects>
        <_>
          13 14 2 2 -1.</_>
        <_>
          13 15 2 1 2.</_></rects>
      <tilted>0</tilted></_></features></cascade>
</opencv_storage>
