<?xml version="1.0"?>
<opencv_storage>
<cascade>
  <stageType>BOOST</stageType>
  <featureType>HAAR</featureType>
  <height>20</height>
  <width>20</width>
  <stageParams>
    <boostType>GAB</boostType>
    <minHitRate>9.9500000476837158e-01</minHitRate>
    <maxFalseAlarm>5.0000000000000000e-01</maxFalseAlarm>
    <weightTrimRate>9.4999999999999996e-01</weightTrimRate>
    <maxDepth>1</maxDepth>
    <maxWeakCount>100</maxWeakCount></stageParams>
  <featureParams>
    <maxCatCount>0</maxCatCount>
    <featSize>1</featSize>
    <mode>BASIC</mode></featureParams>
  <stageNum>14</stageNum>
  <stages>
    <!-- stage 0 -->
    <_>
      <maxWeakCount>2</maxWeakCount>
      <stageThreshold>-2.9477289319038391e-01</stageThreshold>
      <weakClassifiers>
        <_>
          <internalNodes>
            0 -1 35 1.0620291531085968e-01</internalNodes>
          <leafValues>
            -9.6926456689834595e-01 9.0138822793960571e-01</leafValues></_>
        <_>
          <internalNodes>
            0 -1 16 2.1647928282618523e-02</internalNodes>
          <leafValues>
            -9.4347119331359863e-01 6.7449164390563965e-01</leafValues></_></weakClassifiers></_>
    <!-- stage 1 -->
    <_>
      <maxWeakCount>2</maxWeakCount>
      <stageThreshold>-3.1192028522491455e-01</stageThreshold>
      <weakClassifiers>
        <_>
          <internalNodes>
            0 -1 14 6.3495680689811707e-02</internalNodes>
          <leafValues>
            -9.2136305570602417e-01 7.6128745079040527e-01</leafValues></_>
        <_>
          <internalNodes>
            0 -1 12 1.7902302742004395e-01</internalNodes>
          <leafValues>
            -8.2938194274902344e-01 6.0944277048110962e-01</leafValues></_></weakClassifiers></_>
    <!-- stage 2 -->
    <_>
      <maxWeakCount>4</maxWeakCount>
      <stageThreshold>-6.0792118310928345e-01</stageThreshold>
      <weakClassifiers>
        <_>
          <internalNodes>
            0 -1 51 1.3516806066036224e-02</internalNodes>
          <leafValues>
            -6.1893767118453979e-01 7.1977508068084717e-01</leafValues></_>
        <_>
          <internalNodes>
            0 -1 24 1.7674859613180161e-02</internalNodes>
          <leafValues>
            -8.7676882743835449e-01 4.8428571224212646e-01</leafValues></_>
        <_>
          <internalNodes>
            0 -1 34 1.3616082072257996e-01</internalNodes>
          <leafValues>
            -8.8804876804351807e-01 4.2557099461555481e-01</leafValues></_>
        <_>
          <internalNodes>
            0 -1 55 2.7128558140248060e-03</internalNodes>
          <leafValues>
            -6.1174505949020386e-01 4.6221426129341125e-01</leafValues></_></weakClassifiers></_>
    <!-- stage 3 -->
    <_>
      <maxWeakCount>4</maxWeakCount>
      <stageThreshold>-6.6771322488784790e-01</stageThreshold>
      <weakClassifiers>
        <_>
          <internalNodes>
            0 -1 73 1.1284368112683296e-02</internalNodes>
          <leafValues>
            -8.0134677886962891e-01 6.1346632242202759e-01</leafValues></_>
        <_>
          <internalNodes>
            0 -1 7 9.8579786717891693e-03</internalNodes>
          <leafValues>
            -6.8716007471084595e-01 4.6906906366348267e-01</leafValues></_>
        <_>
          <internalNodes>
            0 -1 5 1.1486391723155975e-01</internalNodes>
          <leafValues>
            -8.4162938594818115e-01 3.8201856613159180e-01</leafValues></_>
        <_>
          <internalNodes>
            0 -1 19 1.3143829070031643e-02</internalNodes>
          <leafValues>
            2.4760988354682922e-01 -9.0234148502349854e-01</leafValues></_></weakClassifiers></_>
    <!-- stage 4 -->
    <_>
      <maxWeakCount>7</maxWeakCount>
      <stageThreshold>-9.2832630872726440e-01</stageThreshold>
      <weakClassifiers>
        <_>
          <internalNodes>
            0 -1 26 3.1965851783752441e-02</internalNodes>
          <leafValues>
            -8.3177572488784790e-01 5.8620691299438477e-01</leafValues></_>
        <_>
          <internalNodes>
            0 -1 4 2.1514091640710831e-02</internalNodes>
          <leafValues>
            -8.2843977212905884e-01 3.8396778702735901e-01</leafValues></_>
        <_>
          <internalNodes>
            0 -1 53 2.7199283242225647e-02</internalNodes>
          <leafValues>
            -4.9335825443267822e-01 6.2396025657653809e-01</leafValues></_>
        <_>
          <internalNodes>
            0 -1 58 8.3411512896418571e-03</internalNodes>
          <leafValues>
            -6.3956683874130249e-01 4.0539348125457764e-01</leafValues></_>
        <_>
          <internalNodes>
            0 -1 68 2.2836809512227774e-03</internalNodes>
          <leafValues>
            -8.9314711093902588e-01 2.2824883460998535e-01</leafValues></_>
        <_>
          <internalNodes>
            0 -1 49 1.0052750585600734e-03</internalNodes>
          <leafValues>
            -9.5333933830261230e-01 2.0261645317077637e-01</leafValues></_>
        <_>
          <internalNodes>
            0 -1 31 2.6456747204065323e-02</internalNodes>
          <leafValues>
            2.2154140472412109e-01 -9.2066591978073120e-01</leafValues></_></weakClassifiers></_>
    <!-- stage 5 -->
    <_>
      <maxWeakCount>5</maxWeakCount>
      <stageThreshold>-5.5370998382568359e-01</stageThreshold>
      <weakClassifiers>
        <_>
          <internalNodes>
            0 -1 39 3.7211733870208263e-03</internalNodes>
          <leafValues>
            -8.7596899271011353e-01 5.8454108238220215e-01</leafValues></_>
        <_>
          <internalNodes>
            0 -1 36 1.8741805106401443e-02</internalNodes>
          <leafValues>
            3.0733099579811096e-01 -8.8900649547576904e-01</leafValues></_>
        <_>
          <internalNodes>
            0 -1 1 1.7887809872627258e-01</internalNodes>
          <leafValues>
            -7.6202398538589478e-01 3.2554191350936890e-01</leafValues></_>
        <_>
          <internalNodes>
            0 -1 45 4.6591232530772686e-03</internalNodes>
          <leafValues>
            -5.0882124900817871e-01 4.7796019911766052e-01</leafValues></_>
        <_>
          <internalNodes>
            0 -1 75 1.4490752946585417e-03</internalNodes>
          <leafValues>
            2.9899179935455322e-01 -9.1465860605239868e-01</leafValues></_></weakClassifiers></_>
    <!-- stage 6 -->
    <_>
      <maxWeakCount>4</maxWeakCount>
      <stageThreshold>-4.4277533888816833e-01</stageThreshold>
      <weakClassifiers>
        <_>
          <internalNodes>
            0 -1 71 -2.2863880731165409e-03</internalNodes>
          <leafValues>
            -9.3367344141006470e-01 5.2377301454544067e-01</leafValues></_>
        <_>
          <internalNodes>
            0 -1 52 2.3323088884353638e-02</internalNodes>
          <leafValues>
            -4.4892144203186035e-01 6.4694780111312866e-01</leafValues></_>
        <_>
          <internalNodes>
            0 -1 28 2.3978278040885925e-03</internalNodes>
          <leafValues>
            -9.2586672306060791e-01 3.2917630672454834e-01</leafValues></_>
        <_>
          <internalNodes>
            0 -1 56 5.2072084508836269e-03</internalNodes>
          <leafValues>
            -4.8522597551345825e-01 5.2599394321441650e-01</leafValues></_></weakClassifiers></_>
    <!-- stage 7 -->
    <_>
      <maxWeakCount>7</maxWeakCount>
      <stageThreshold>-5.5585598945617676e-01</stageThreshold>
      <weakClassifiers>
        <_>
          <internalNodes>
            0 -1 29 1.5235880389809608e-02</internalNodes>
          <leafValues>
            5.5529129505157471e-01 -8.4067088365554810e-01</leafValues></_>
        <_>
          <internalNodes>
            0 -1 60 4.9040671437978745e-03</internalNodes>
          <leafValues>
            -4.9555277824401855e-01 5.5015480518341064e-01</leafValues></_>
        <_>
          <internalNodes>
            0 -1 51 1.5429316088557243e-02</internalNodes>
          <leafValues>
            -6.8301177024841309e-01 4.2379429936408997e-01</leafValues></_>
        <_>
          <internalNodes>
            0 -1 3 5.4856040515005589e-03</internalNodes>
          <leafValues>
            -4.8330408334732056e-01 5.3878211975097656e-01</leafValues></_>
        <_>
          <internalNodes>
            0 -1 50 6.0327548999339342e-04</internalNodes>
          <leafValues>
            -6.9873583316802979e-01 3.4550368785858154e-01</leafValues></_>
        <_>
          <internalNodes>
            0 -1 38 3.6179036833345890e-03</internalNodes>
          <leafValues>
            -8.9482474327087402e-01 2.3668611049652100e-01</leafValues></_>
        <_>
          <internalNodes>
            0 -1 47 2.8262380510568619e-03</internalNodes>
          <leafValues>
            2.7984097599983215e-01 -8.5866940021514893e-01</leafValues></_></weakClassifiers></_>
    <!-- stage 8 -->
    <_>
      <maxWeakCount>5</maxWeakCount>
      <stageThreshold>-5.6991744041442871e-01</stageThreshold>
      <weakClassifiers>
        <_>
          <internalNodes>
            0 -1 65 8.8570285588502884e-03</internalNodes>
          <leafValues>
            -8.4842103719711304e-01 5.5564355850219727e-01</leafValues></_>
        <_>
          <internalNodes>
            0 -1 44 -1.6026975354179740e-03</internalNodes>
          <leafValues>
            3.5778012871742249e-01 -8.1736403703689575e-01</leafValues></_>
        <_>
          <internalNodes>
            0 -1 64 3.4844169858843088e-03</internalNodes>
          <leafValues>
            -5.2170431613922119e-01 5.0330042839050293e-01</leafValues></_>
        <_>
          <internalNodes>
            0 -1 70 5.7825585827231407e-04</internalNodes>
          <leafValues>
            -6.8824064731597900e-01 3.1943622231483459e-01</leafValues></_>
        <_>
          <internalNodes>
            0 -1 33 1.2618051841855049e-02</internalNodes>
          <leafValues>
            -7.5560355186462402e-01 2.7313092350959778e-01</leafValues></_></weakClassifiers></_>
    <!-- stage 9 -->
    <_>
      <maxWeakCount>8</maxWeakCount>
      <stageThreshold>-1.1278495788574219e+00</stageThreshold>
      <weakClassifiers>
        <_>
          <internalNodes>
            0 -1 32 7.5670746155083179e-03</internalNodes>
          <leafValues>
            -7.6639342308044434e-01 5.4697453975677490e-01</leafValues></_>
        <_>
          <internalNodes>
            0 -1 6 1.1168453842401505e-02</internalNodes>
          <leafValues>
            -5.9913766384124756e-01 4.0441656112670898e-01</leafValues></_>
        <_>
          <internalNodes>
            0 -1 66 5.3178559755906463e-04</internalNodes>
          <leafValues>
            -6.6486620903015137e-01 3.3966454863548279e-01</leafValues></_>
        <_>
          <internalNodes>
            0 -1 67 3.3520353026688099e-03</internalNodes>
          <leafValues>
            -9.0860474109649658e-01 1.8145167827606201e-01</leafValues></_>
        <_>
          <internalNodes>
            0 -1 0 3.7692643702030182e-02</internalNodes>
          <leafValues>
            -2.7631562948226929e-01 8.6824417114257812e-01</leafValues></_>
        <_>
          <internalNodes>
            0 -1 69 -9.6265587490051985e-04</internalNodes>
          <leafValues>
            -8.9840590953826904e-01 2.1823127567768097e-01</leafValues></_>
        <_>
          <internalNodes>
            0 -1 76 4.4893071753904223e-04</internalNodes>
          <leafValues>
            -6.1085402965545654e-01 3.0942162871360779e-01</leafValues></_>
        <_>
          <internalNodes>
            0 -1 8 1.6913637518882751e-03</internalNodes>
          <leafValues>
            -8.5486060380935669e-01 1.8974940478801727e-01</leafValues></_></weakClassifiers></_>
    <!-- stage 10 -->
    <_>
      <maxWeakCount>8</maxWeakCount>
      <stageThreshold>-8.0935508012771606e-01</stageThreshold>
      <weakClassifiers>
        <_>
          <internalNodes>
            0 -1 23 3.9857049705460668e-04</internalNodes>
          <leafValues>
            -6.0689657926559448e-01 5.5867767333984375e-01</leafValues></_>
        <_>
          <internalNodes>
            0 -1 22 2.6125812437385321e-03</internalNodes>
          <leafValues>
            3.0215379595756531e-01 -8.2859259843826294e-01</leafValues></_>
        <_>
          <internalNodes>
            0 -1 42 -4.5680170878767967e-03</internalNodes>
          <leafValues>
            -9.1975289583206177e-01 1.9408456981182098e-01</leafValues></_>
        <_>
          <internalNodes>
            0 -1 77 -3.0037364922463894e-04</internalNodes>
          <leafValues>
            3.1107538938522339e-01 -5.7354038953781128e-01</leafValues></_>
        <_>
          <internalNodes>
            0 -1 2 4.2585232295095921e-03</internalNodes>
          <leafValues>
            -5.2755951881408691e-01 4.2991879582405090e-01</leafValues></_>
        <_>
          <internalNodes>
            0 -1 27 1.5633876901119947e-03</internalNodes>
          <leafValues>
            -8.2058626413345337e-01 2.0912671089172363e-01</leafValues></_>
        <_>
          <internalNodes>
            0 -1 10 1.0405138134956360e-01</internalNodes>
          <leafValues>
            2.0144273340702057e-01 -9.0095567703247070e-01</leafValues></_>
        <_>
          <internalNodes>
            0 -1 13 4.8032067716121674e-02</internalNodes>
          <leafValues>
            -8.0072134733200073e-01 1.6510166227817535e-01</leafValues></_></weakClassifiers></_>
    <!-- stage 11 -->
    <_>
      <maxWeakCount>8</maxWeakCount>
      <stageThreshold>-7.0275223255157471e-01</stageThreshold>
      <weakClassifiers>
        <_>
          <internalNodes>
            0 -1 40 -6.6401594085618854e-04</internalNodes>
          <leafValues>
            -6.9351667165756226e-01 5.4315537214279175e-01</leafValues></_>
        <_>
          <internalNodes>
            0 -1 61 1.0454216971993446e-02</internalNodes>
          <leafValues>
            -5.3391629457473755e-01 3.7007683515548706e-01</leafValues></_>
        <_>
          <internalNodes>
            0 -1 43 7.1092345751821995e-03</internalNodes>
          <leafValues>
            -3.5020300745964050e-01 5.5954802036285400e-01</leafValues></_>
        <_>
          <internalNodes>
            0 -1 59 4.4833756983280182e-03</internalNodes>
          <leafValues>
            2.5031447410583496e-01 -8.5768234729766846e-01</leafValues></_>
        <_>
          <internalNodes>
            0 -1 31 5.5909114889800549e-03</internalNodes>
          <leafValues>
            -9.3075346946716309e-01 1.3716679811477661e-01</leafValues></_>
        <_>
          <internalNodes>
            0 -1 15 1.0436785407364368e-02</internalNodes>
          <leafValues>
            -7.3742252588272095e-01 2.0179881155490875e-01</leafValues></_>
        <_>
          <internalNodes>
            0 -1 57 -4.2306818068027496e-03</internalNodes>
          <leafValues>
            -8.8598871231079102e-01 1.7119324207305908e-01</leafValues></_>
        <_>
          <internalNodes>
            0 -1 17 2.8992544859647751e-02</internalNodes>
          <leafValues>
            1.3892409205436707e-01 -9.2364156246185303e-01</leafValues></_></weakClassifiers></_>
    <!-- stage 12 -->
    <_>
      <maxWeakCount>7</maxWeakCount>
      <stageThreshold>-8.7972885370254517e-01</stageThreshold>
      <weakClassifiers>
        <_>
          <internalNodes>
            0 -1 18 -5.0893612205982208e-04</internalNodes>
          <leafValues>
            -8.0049872398376465e-01 5.0827240943908691e-01</leafValues></_>
        <_>
          <internalNodes>
            0 -1 30 9.8607435822486877e-02</internalNodes>
          <leafValues>
            -5.2695822715759277e-01 3.8483065366744995e-01</leafValues></_>
        <_>
          <internalNodes>
            0 -1 62 8.7878823978826404e-04</internalNodes>
          <leafValues>
            -5.5122500658035278e-01 4.1363248229026794e-01</leafValues></_>
        <_>
          <internalNodes>
            0 -1 25 4.1255723685026169e-02</internalNodes>
          <leafValues>
            -8.7638956308364868e-01 2.3092979192733765e-01</leafValues></_>
        <_>
          <internalNodes>
            0 -1 11 3.4453392028808594e-02</internalNodes>
          <leafValues>
            -8.1748580932617188e-01 2.0864661037921906e-01</leafValues></_>
        <_>
          <internalNodes>
            0 -1 54 -3.7610650062561035e-02</internalNodes>
          <leafValues>
            -9.5529365539550781e-01 1.1857046931982040e-01</leafValues></_>
        <_>
          <internalNodes>
            0 -1 9 2.8929617255926132e-02</internalNodes>
          <leafValues>
            1.5899363160133362e-01 -8.6796492338180542e-01</leafValues></_></weakClassifiers></_>
    <!-- stage 13 -->
    <_>
      <maxWeakCount>9</maxWeakCount>
      <stageThreshold>-8.2510870695114136e-01</stageThreshold>
      <weakClassifiers>
        <_>
          <internalNodes>
            0 -1 48 4.5202886685729027e-03</internalNodes>
          <leafValues>
            -6.1384332180023193e-01 5.4549163579940796e-01</leafValues></_>
        <_>
          <internalNodes>
            0 -1 74 -3.3041145652532578e-03</internalNodes>
          <leafValues>
            3.7748458981513977e-01 -5.5668038129806519e-01</leafValues></_>
        <_>
          <internalNodes>
            0 -1 20 6.0515487566590309e-03</internalNodes>
          <leafValues>
            -8.3731454610824585e-01 2.4320603907108307e-01</leafValues></_>
        <_>
          <internalNodes>
            0 -1 46 -8.4052570164203644e-03</internalNodes>
          <leafValues>
            5.5345189571380615e-01 -3.7504690885543823e-01</leafValues></_>
        <_>
          <internalNodes>
            0 -1 37 -1.0285820811986923e-02</internalNodes>
          <leafValues>
            -9.3933427333831787e-01 2.1412818133831024e-01</leafValues></_>
        <_>
          <internalNodes>
            0 -1 41 9.0820621699094772e-03</internalNodes>
          <leafValues>
            -6.0013765096664429e-01 3.3083724975585938e-01</leafValues></_>
        <_>
          <internalNodes>
            0 -1 63 -4.6634259633719921e-03</internalNodes>
          <leafValues>
            2.8874778747558594e-01 -5.8575898408889771e-01</leafValues></_>
        <_>
          <internalNodes>
            0 -1 72 -2.4184957146644592e-03</internalNodes>
          <leafValues>
            -8.9954388141632080e-01 1.4598931372165680e-01</leafValues></_>
        <_>
          <internalNodes>
            0 -1 21 -8.0173660535365343e-04</internalNodes>
          <leafValues>
            4.4358652830123901e-01 -3.8860234618186951e-01</leafValues></_></weakClassifiers></_></stages>
  <features>
    <_>
      <rects>
        <_>
          0 10 4 7 -1.</_>
        <_>
          2 10 2 7 2.</_></rects>
      <tilted>0</tilted></_>
    <_>
      <rects>
        <_>
          1 6 18 12 -1.</_>
        <_>
          7 6 6 12 3.</_></rects>
      <tilted>0</tilted></_>
    <_>
      <rects>
        <_>
          1 11 6 4 -1.</_>
        <_>
          3 11 2 4 3.</_></rects>
      <tilted>0</tilted></_>
    <_>
      <rects>
        <_>
          1 12 6 4 -1.</_>
        <_>
          3 12 2 4 3.</_></rects>
      <tilted>0</tilted></_>
    <_>
      <rects>
        <_>
          2 6 15 5 -1.</_>
        <_>
          7 6 5 5 3.</_></rects>
      <tilted>0</tilted></_>
    <_>
      <rects>
        <_>
          2 6 15 12 -1.</_>
        <_>
          7 6 5 12 3.</_></rects>
      <tilted>0</tilted></_>
    <_>
      <rects>
        <_>
          2 9 15 2 -1.</_>
        <_>
          2 10 15 1 2.</_></rects>
      <tilted>0</tilted></_>
    <_>
      <rects>
        <_>
          2 9 16 2 -1.</_>
        <_>
          2 10 16 1 2.</_></rects>
      <tilted>0</tilted></_>
    <_>
      <rects>
        <_>
          2 11 6 4 -1.</_>
        <_>
          5 11 3 4 2.</_></rects>
      <tilted>0</tilted></_>
    <_>
      <rects>
        <_>
          3 5 12 5 -1.</_>
        <_>
          9 5 6 5 2.</_></rects>
      <tilted>0</tilted></_>
    <_>
      <rects>
        <_>
          3 8 15 6 -1.</_>
        <_>
          8 8 5 6 3.</_></rects>
      <tilted>0</tilted></_>
    <_>
      <rects>
        <_>
          3 14 15 3 -1.</_>
        <_>
          8 14 5 3 3.</_></rects>
      <tilted>0</tilted></_>
    <_>
      <rects>
        <_>
          4 4 11 12 -1.</_>
        <_>
          4 10 11 6 2.</_></rects>
      <tilted>0</tilted></_>
    <_>
      <rects>
        <_>
          4 6 12 9 -1.</_>
        <_>
          8 6 4 9 3.</_></rects>
      <tilted>0</tilted></_>
    <_>
      <rects>
        <_>
          4 6 12 12 -1.</_>
        <_>
          8 6 4 12 3.</_></rects>
      <tilted>0</tilted></_>
    <_>
      <rects>
        <_>
          4 11 5 4 -1.</_>
        <_>
          4 13 5 2 2.</_></rects>
      <tilted>0</tilted></_>
    <_>
      <rects>
        <_>
          4 11 11 4 -1.</_>
        <_>
          4 13 11 2 2.</_></rects>
      <tilted>0</tilted></_>
    <_>
      <rects>
        <_>
          4 12 12 2 -1.</_>
        <_>
          8 12 4 2 3.</_></rects>
      <tilted>0</tilted></_>
    <_>
      <rects>
        <_>
          4 13 2 2 -1.</_>
        <_>
          4 14 2 1 2.</_></rects>
      <tilted>0</tilted></_>
    <_>
      <rects>
        <_>
          4 13 12 1 -1.</_>
        <_>
          8 13 4 1 3.</_></rects>
      <tilted>0</tilted></_>
    <_>
      <rects>
        <_>
          4 14 6 3 -1.</_>
        <_>
          7 14 3 3 2.</_></rects>
      <tilted>0</tilted></_>
    <_>
      <rects>
        <_>
          5 4 4 2 -1.</_>
        <_>
          5 4 2 1 2.</_>
        <_>
          7 5 2 1 2.</_></rects>
      <tilted>0</tilted></_>
    <_>
      <rects>
        <_>
          5 4 10 2 -1.</_>
        <_>
          10 4 5 2 2.</_></rects>
      <tilted>0</tilted></_>
    <_>
      <rects>
        <_>
          5 5 6 3 -1.</_>
        <_>
          8 5 3 3 2.</_></rects>
      <tilted>0</tilted></_>
    <_>
      <rects>
        <_>
          5 5 9 8 -1.</_>
        <_>
          8 5 3 8 3.</_></rects>
      <tilted>0</tilted></_>
    <_>
      <rects>
        <_>
          5 8 8 6 -1.</_>
        <_>
          5 11 8 3 2.</_></rects>
      <tilted>0</tilted></_>
    <_>
      <rects>
        <_>
          6 8 4 8 -1.</_>
        <_>
          6 12 4 4 2.</_></rects>
      <tilted>0</tilted></_>
    <_>
      <rects>
        <_>
          6 10 2 7 -1.</_>
        <_>
          7 10 1 7 2.</_></rects>
      <tilted>0</tilted></_>
    <_>
      <rects>
        <_>
          6 10 6 4 -1.</_>
        <_>
          8 10 2 4 3.</_></rects>
      <tilted>0</tilted></_>
    <_>
      <rects>
        <_>
          6 10 8 6 -1.</_>
        <_>
          6 10 4 3 2.</_>
        <_>
          10 13 4 3 2.</_></rects>
      <tilted>0</tilted></_>
    <_>
      <rects>
        <_>
          6 11 12 9 -1.</_>
        <_>
          6 14 12 3 3.</_></rects>
      <tilted>0</tilted></_>
    <_>
      <rects>
        <_>
          6 12 9 4 -1.</_>
        <_>
          9 12 3 4 3.</_></rects>
      <tilted>0</tilted></_>
    <_>
      <rects>
        <_>
          6 15 9 3 -1.</_>
        <_>
          9 15 3 3 3.</_></rects>
      <tilted>0</tilted></_>
    <_>
      <rects>
        <_>
          7 2 3 10 -1.</_>
        <_>
          7 7 3 5 2.</_></rects>
      <tilted>0</tilted></_>
    <_>
      <rects>
        <_>
          7 3 6 14 -1.</_>
        <_>
          7 10 6 7 2.</_></rects>
      <tilted>0</tilted></_>
    <_>
      <rects>
        <_>
          7 5 7 12 -1.</_>
        <_>
          7 11 7 6 2.</_></rects>
      <tilted>0</tilted></_>
    <_>
      <rects>
        <_>
          7 8 6 7 -1.</_>
        <_>
          9 8 2 7 3.</_></rects>
      <tilted>0</tilted></_>
    <_>
      <rects>
        <_>
          7 8 4 9 -1.</_>
        <_>
          7 11 4 3 3.</_></rects>
      <tilted>0</tilted></_>
    <_>
      <rects>
        <_>
          7 9 6 4 -1.</_>
        <_>
          9 9 2 4 3.</_></rects>
      <tilted>0</tilted></_>
    <_>
      <rects>
        <_>
          7 10 6 5 -1.</_>
        <_>
          9 10 2 5 3.</_></rects>
      <tilted>0</tilted></_>
    <_>
      <rects>
        <_>
          7 10 8 6 -1.</_>
        <_>
          7 10 4 3 2.</_>
        <_>
          11 13 4 3 2.</_></rects>
      <tilted>0</tilted></_>
    <_>
      <rects>
        <_>
          7 12 4 4 -1.</_>
        <_>
          7 14 4 2 2.</_></rects>
      <tilted>0</tilted></_>
    <_>
      <rects>
        <_>
          8 4 4 3 -1.</_>
        <_>
          10 4 2 3 2.</_></rects>
      <tilted>0</tilted></_>
    <_>
      <rects>
        <_>
          8 5 4 3 -1.</_>
        <_>
          8 6 4 1 3.</_></rects>
      <tilted>0</tilted></_>
    <_>
      <rects>
        <_>
          8 5 8 3 -1.</_>
        <_>
          12 5 4 3 2.</_></rects>
      <tilted>0</tilted></_>
    <_>
      <rects>
        <_>
          8 5 6 2 -1.</_>
        <_>
          8 6 6 1 2.</_></rects>
      <tilted>0</tilted></_>
    <_>
      <rects>
        <_>
          8 7 5 3 -1.</_>
        <_>
          8 8 5 1 3.</_></rects>
      <tilted>0</tilted></_>
    <_>
      <rects>
        <_>
          8 10 3 6 -1.</_>
        <_>
          9 10 1 6 3.</_></rects>
      <tilted>0</tilted></_>
    <_>
      <rects>
        <_>
          8 10 6 5 -1.</_>
        <_>
          10 10 2 5 3.</_></rects>
      <tilted>0</tilted></_>
    <_>
      <rects>
        <_>
          8 11 6 6 -1.</_>
        <_>
          10 11 2 6 3.</_></rects>
      <tilted>0</tilted></_>
    <_>
      <rects>
        <_>
          8 13 4 3 -1.</_>
        <_>
          8 14 4 1 3.</_></rects>
      <tilted>0</tilted></_>
    <_>
      <rects>
        <_>
          8 13 5 6 -1.</_>
        <_>
          8 15 5 2 3.</_></rects>
      <tilted>0</tilted></_>
    <_>
      <rects>
        <_>
          8 14 4 6 -1.</_>
        <_>
          8 16 4 2 3.</_></rects>
      <tilted>0</tilted></_>
    <_>
      <rects>
        <_>
          8 14 6 6 -1.</_>
        <_>
          8 16 6 2 3.</_></rects>
      <tilted>0</tilted></_>
    <_>
      <rects>
        <_>
          9 2 2 15 -1.</_>
        <_>
          9 7 2 5 3.</_></rects>
      <tilted>0</tilted></_>
    <_>
      <rects>
        <_>
          9 5 3 2 -1.</_>
        <_>
          9 6 3 1 2.</_></rects>
      <tilted>0</tilted></_>
    <_>
      <rects>
        <_>
          9 5 3 3 -1.</_>
        <_>
          9 6 3 1 3.</_></rects>
      <tilted>0</tilted></_>
    <_>
      <rects>
        <_>
          9 7 1 9 -1.</_>
        <_>
          9 10 1 3 3.</_></rects>
      <tilted>0</tilted></_>
    <_>
      <rects>
        <_>
          9 8 3 4 -1.</_>
        <_>
          9 10 3 2 2.</_></rects>
      <tilted>0</tilted></_>
    <_>
      <rects>
        <_>
          9 9 3 7 -1.</_>
        <_>
          10 9 1 7 3.</_></rects>
      <tilted>0</tilted></_>
    <_>
      <rects>
        <_>
          9 9 3 2 -1.</_>
        <_>
          9 10 3 1 2.</_></rects>
      <tilted>0</tilted></_>
    <_>
      <rects>
        <_>
          9 14 3 6 -1.</_>
        <_>
          9 16 3 2 3.</_></rects>
      <tilted>0</tilted></_>
    <_>
      <rects>
        <_>
          10 5 1 2 -1.</_>
        <_>
          10 6 1 1 2.</_></rects>
      <tilted>0</tilted></_>
    <_>
      <rects>
        <_>
          10 5 6 3 -1.</_>
        <_>
          13 5 3 3 2.</_></rects>
      <tilted>0</tilted></_>
    <_>
      <rects>
        <_>
          10 5 6 2 -1.</_>
        <_>
          10 6 6 1 2.</_></rects>
      <tilted>0</tilted></_>
    <_>
      <rects>
        <_>
          10 8 2 6 -1.</_>
        <_>
          10 11 2 3 2.</_></rects>
      <tilted>0</tilted></_>
    <_>
      <rects>
        <_>
          10 9 4 8 -1.</_>
        <_>
          10 9 2 4 2.</_>
        <_>
          12 13 2 4 2.</_></rects>
      <tilted>0</tilted></_>
    <_>
      <rects>
        <_>
          10 10 1 6 -1.</_>
        <_>
          10 13 1 3 2.</_></rects>
      <tilted>0</tilted></_>
    <_>
      <rects>
        <_>
          10 11 1 6 -1.</_>
        <_>
          10 14 1 3 2.</_></rects>
      <tilted>0</tilted></_>
    <_>
      <rects>
        <_>
          10 11 3 4 -1.</_>
        <_>
          11 11 1 4 3.</_></rects>
      <tilted>0</tilted></_>
    <_>
      <rects>
        <_>
          10 13 1 2 -1.</_>
        <_>
          10 14 1 1 2.</_></rects>
      <tilted>0</tilted></_>
    <_>
      <rects>
        <_>
          10 13 6 3 -1.</_>
        <_>
          12 13 2 3 3.</_></rects>
      <tilted>0</tilted></_>
    <_>
      <rects>
        <_>
          11 4 2 3 -1.</_>
        <_>
          12 4 1 3 2.</_></rects>
      <tilted>0</tilted></_>
    <_>
      <rects>
        <_>
          11 11 5 4 -1.</_>
        <_>
          11 13 5 2 2.</_></rects>
      <tilted>0</tilted></_>
    <_>
      <rects>
        <_>
          11 12 8 6 -1.</_>
        <_>
          11 12 4 3 2.</_>
        <_>
          15 15 4 3 2.</_></rects>
      <tilted>0</tilted></_>
    <_>
      <rects>
        <_>
          12 13 3 2 -1.</_>
        <_>
          13 13 1 2 3.</_></rects>
      <tilted>0</tilted></_>
    <_>
      <rects>
        <_>
          12 13 6 3 -1.</_>
        <_>
          14 13 2 3 3.</_></rects>
      <tilted>0</tilted></_>
    <_>
      <rects>
        <_>
          16 13 2 1 -1.</_>
        <_>
          17 13 1 1 2.</_></rects>
      <tilted>0</tilted></_></features></cascade>
</opencv_storage>
