<?xml version="1.0"?>
<opencv_storage>
<cascade>
  <stageType>BOOST</stageType>
  <featureType>HAAR</featureType>
  <height>20</height>
  <width>20</width>
  <stageParams>
    <boostType>GAB</boostType>
    <minHitRate>9.9500000476837158e-01</minHitRate>
    <maxFalseAlarm>5.0000000000000000e-01</maxFalseAlarm>
    <weightTrimRate>9.4999999999999996e-01</weightTrimRate>
    <maxDepth>1</maxDepth>
    <maxWeakCount>100</maxWeakCount></stageParams>
  <featureParams>
    <maxCatCount>0</maxCatCount>
    <featSize>1</featSize>
    <mode>BASIC</mode></featureParams>
  <stageNum>14</stageNum>
  <stages>
    <!-- stage 0 -->
    <_>
      <maxWeakCount>2</maxWeakCount>
      <stageThreshold>-2.9183667898178101e-01</stageThreshold>
      <weakClassifiers>
        <_>
          <internalNodes>
            0 -1 20 3.6640457808971405e-02</internalNodes>
          <leafValues>
            -9.4265234470367432e-01 8.2709199190139771e-01</leafValues></_>
        <_>
          <internalNodes>
            0 -1 3 1.6673505306243896e-02</internalNodes>
          <leafValues>
            -9.1118216514587402e-01 6.5081566572189331e-01</leafValues></_></weakClassifiers></_>
    <!-- stage 1 -->
    <_>
      <maxWeakCount>3</maxWeakCount>
      <stageThreshold>-1.0396451950073242e+00</stageThreshold>
      <weakClassifiers>
        <_>
          <internalNodes>
            0 -1 11 8.4536522626876831e-03</internalNodes>
          <leafValues>
            -9.5491141080856323e-01 6.6960906982421875e-01</leafValues></_>
        <_>
          <internalNodes>
            0 -1 71 -5.9226067969575524e-04</internalNodes>
          <leafValues>
            4.8117771744728088e-01 -8.7264323234558105e-01</leafValues></_>
        <_>
          <internalNodes>
            0 -1 10 -8.4438920021057129e-03</internalNodes>
          <leafValues>
            4.4447886943817139e-01 -8.3661103248596191e-01</leafValues></_></weakClassifiers></_>
    <!-- stage 2 -->
    <_>
      <maxWeakCount>5</maxWeakCount>
      <stageThreshold>-8.0294442176818848e-01</stageThreshold>
      <weakClassifiers>
        <_>
          <internalNodes>
            0 -1 42 9.3664610758423805e-03</internalNodes>
          <leafValues>
            -7.3099416494369507e-01 6.4766842126846313e-01</leafValues></_>
        <_>
          <internalNodes>
            0 -1 4 3.6087237298488617e-02</internalNodes>
          <leafValues>
            -8.3202570676803589e-01 4.4697126746177673e-01</leafValues></_>
        <_>
          <internalNodes>
            0 -1 32 8.0365706235170364e-03</internalNodes>
          <leafValues>
            -3.7006804347038269e-01 7.7525943517684937e-01</leafValues></_>
        <_>
          <internalNodes>
            0 -1 19 9.6559757366776466e-03</internalNodes>
          <leafValues>
            -9.3614524602890015e-01 3.1674912571907043e-01</leafValues></_>
        <_>
          <internalNodes>
            0 -1 63 -3.1820381991565228e-03</internalNodes>
          <leafValues>
            6.9852244853973389e-01 -4.6560263633728027e-01</leafValues></_></weakClassifiers></_>
    <!-- stage 3 -->
    <_>
      <maxWeakCount>5</maxWeakCount>
      <stageThreshold>-4.0173876285552979e-01</stageThreshold>
      <weakClassifiers>
        <_>
          <internalNodes>
            0 -1 17 -4.5018177479505539e-03</internalNodes>
          <leafValues>
            6.2327331304550171e-01 -8.0032736063003540e-01</leafValues></_>
        <_>
          <internalNodes>
            0 -1 1 2.0331723615527153e-02</internalNodes>
          <leafValues>
            -5.6535869836807251e-01 4.9849843978881836e-01</leafValues></_>
        <_>
          <internalNodes>
            0 -1 40 2.2308058105409145e-03</internalNodes>
          <leafValues>
            -6.0977679491043091e-01 5.0266987085342407e-01</leafValues></_>
        <_>
          <internalNodes>
            0 -1 49 -6.1735516646876931e-04</internalNodes>
          <leafValues>
            -8.3021831512451172e-01 3.0181920528411865e-01</leafValues></_>
        <_>
          <internalNodes>
            0 -1 51 4.4008297845721245e-03</internalNodes>
          <leafValues>
            2.2763861715793610e-01 -9.0407240390777588e-01</leafValues></_></weakClassifiers></_>
    <!-- stage 4 -->
    <_>
      <maxWeakCount>4</maxWeakCount>
      <stageThreshold>-5.3093534708023071e-01</stageThreshold>
      <weakClassifiers>
        <_>
          <internalNodes>
            0 -1 26 -3.1593315303325653e-02</internalNodes>
          <leafValues>
            -9.4942528009414673e-01 5.5087721347808838e-01</leafValues></_>
        <_>
          <internalNodes>
            0 -1 47 1.6568333376199007e-03</internalNodes>
          <leafValues>
            3.3550560474395752e-01 -9.1773974895477295e-01</leafValues></_>
        <_>
          <internalNodes>
            0 -1 21 1.5118805691599846e-02</internalNodes>
          <leafValues>
            -4.0843865275382996e-01 7.3446422815322876e-01</leafValues></_>
        <_>
          <internalNodes>
            0 -1 35 -1.4552532229572535e-03</internalNodes>
          <leafValues>
            -8.9853698015213013e-01 3.3376350998878479e-01</leafValues></_></weakClassifiers></_>
    <!-- stage 5 -->
    <_>
      <maxWeakCount>4</maxWeakCount>
      <stageThreshold>-6.0484671592712402e-01</stageThreshold>
      <weakClassifiers>
        <_>
          <internalNodes>
            0 -1 31 -7.4280002154409885e-03</internalNodes>
          <leafValues>
            5.7267671823501587e-01 -9.1701245307922363e-01</leafValues></_>
        <_>
          <internalNodes>
            0 -1 57 -2.7308603748679161e-03</internalNodes>
          <leafValues>
            6.9218301773071289e-01 -4.1507953405380249e-01</leafValues></_>
        <_>
          <internalNodes>
            0 -1 22 8.5565021436195821e-05</internalNodes>
          <leafValues>
            -9.7495955228805542e-01 3.0496960878372192e-01</leafValues></_>
        <_>
          <internalNodes>
            0 -1 14 -1.6242813318967819e-02</internalNodes>
          <leafValues>
            2.1251565217971802e-01 -8.9597171545028687e-01</leafValues></_></weakClassifiers></_>
    <!-- stage 6 -->
    <_>
      <maxWeakCount>5</maxWeakCount>
      <stageThreshold>-1.5597611665725708e-01</stageThreshold>
      <weakClassifiers>
        <_>
          <internalNodes>
            0 -1 18 2.1335287601687014e-04</internalNodes>
          <leafValues>
            -9.6049380302429199e-01 5.3526014089584351e-01</leafValues></_>
        <_>
          <internalNodes>
            0 -1 58 -3.2150724437087774e-03</internalNodes>
          <leafValues>
            6.2966817617416382e-01 -4.3875554203987122e-01</leafValues></_>
        <_>
          <internalNodes>
            0 -1 13 -1.1330253910273314e-03</internalNodes>
          <leafValues>
            -8.5754466056823730e-01 3.2814040780067444e-01</leafValues></_>
        <_>
          <internalNodes>
            0 -1 62 3.2097175717353821e-02</internalNodes>
          <leafValues>
            2.1340896189212799e-01 -9.5103311538696289e-01</leafValues></_>
        <_>
          <internalNodes>
            0 -1 44 1.1042699217796326e-02</internalNodes>
          <leafValues>
            -3.7801659107208252e-01 7.0172387361526489e-01</leafValues></_></weakClassifiers></_>
    <!-- stage 7 -->
    <_>
      <maxWeakCount>5</maxWeakCount>
      <stageThreshold>-3.4693309664726257e-01</stageThreshold>
      <weakClassifiers>
        <_>
          <internalNodes>
            0 -1 24 1.6411959659308195e-03</internalNodes>
          <leafValues>
            -8.8610476255416870e-01 5.4236626625061035e-01</leafValues></_>
        <_>
          <internalNodes>
            0 -1 48 3.6496343091130257e-04</internalNodes>
          <leafValues>
            2.9601481556892395e-01 -8.7337934970855713e-01</leafValues></_>
        <_>
          <internalNodes>
            0 -1 74 -1.0424269363284111e-02</internalNodes>
          <leafValues>
            7.3015153408050537e-01 -3.5191181302070618e-01</leafValues></_>
        <_>
          <internalNodes>
            0 -1 38 1.0182835161685944e-02</internalNodes>
          <leafValues>
            3.0563813447952271e-01 -8.1722235679626465e-01</leafValues></_>
        <_>
          <internalNodes>
            0 -1 2 6.4063807949423790e-03</internalNodes>
          <leafValues>
            -7.1627855300903320e-01 2.8943058848381042e-01</leafValues></_></weakClassifiers></_>
    <!-- stage 8 -->
    <_>
      <maxWeakCount>8</maxWeakCount>
      <stageThreshold>-7.7259933948516846e-01</stageThreshold>
      <weakClassifiers>
        <_>
          <internalNodes>
            0 -1 45 2.3829187266528606e-03</internalNodes>
          <leafValues>
            -7.9497909545898438e-01 5.4718476533889771e-01</leafValues></_>
        <_>
          <internalNodes>
            0 -1 12 5.1958300173282623e-03</internalNodes>
          <leafValues>
            -4.1063764691352844e-01 5.3463280200958252e-01</leafValues></_>
        <_>
          <internalNodes>
            0 -1 27 -1.6254927963018417e-02</internalNodes>
          <leafValues>
            7.2628098726272583e-01 -2.9473727941513062e-01</leafValues></_>
        <_>
          <internalNodes>
            0 -1 39 3.1047409866005182e-03</internalNodes>
          <leafValues>
            -9.0762722492218018e-01 2.8027984499931335e-01</leafValues></_>
        <_>
          <internalNodes>
            0 -1 52 3.0492827296257019e-02</internalNodes>
          <leafValues>
            2.7876234054565430e-01 -8.3756077289581299e-01</leafValues></_>
        <_>
          <internalNodes>
            0 -1 34 -6.2086191028356552e-03</internalNodes>
          <leafValues>
            6.7868876457214355e-01 -3.8686090707778931e-01</leafValues></_>
        <_>
          <internalNodes>
            0 -1 36 -4.3247616849839687e-04</internalNodes>
          <leafValues>
            -9.7346204519271851e-01 3.1046995520591736e-01</leafValues></_>
        <_>
          <internalNodes>
            0 -1 6 8.6317248642444611e-03</internalNodes>
          <leafValues>
            -7.4746316671371460e-01 2.4510343372821808e-01</leafValues></_></weakClassifiers></_>
    <!-- stage 9 -->
    <_>
      <maxWeakCount>6</maxWeakCount>
      <stageThreshold>-8.9395087957382202e-01</stageThreshold>
      <weakClassifiers>
        <_>
          <internalNodes>
            0 -1 8 2.9542684555053711e-02</internalNodes>
          <leafValues>
            5.4606562852859497e-01 -8.0891722440719604e-01</leafValues></_>
        <_>
          <internalNodes>
            0 -1 16 1.0344890877604485e-02</internalNodes>
          <leafValues>
            -6.3239938020706177e-01 3.8026666641235352e-01</leafValues></_>
        <_>
          <internalNodes>
            0 -1 60 7.0611047558486462e-03</internalNodes>
          <leafValues>
            2.1255822479724884e-01 -9.5376873016357422e-01</leafValues></_>
        <_>
          <internalNodes>
            0 -1 73 -9.1212280094623566e-03</internalNodes>
          <leafValues>
            5.4204386472702026e-01 -3.8989794254302979e-01</leafValues></_>
        <_>
          <internalNodes>
            0 -1 30 -2.9465835541486740e-03</internalNodes>
          <leafValues>
            2.6177206635475159e-01 -7.4898004531860352e-01</leafValues></_>
        <_>
          <internalNodes>
            0 -1 37 3.8819637848064303e-04</internalNodes>
          <leafValues>
            -8.9396345615386963e-01 1.8317145109176636e-01</leafValues></_></weakClassifiers></_>
    <!-- stage 10 -->
    <_>
      <maxWeakCount>7</maxWeakCount>
      <stageThreshold>-8.3473938703536987e-01</stageThreshold>
      <weakClassifiers>
        <_>
          <internalNodes>
            0 -1 56 9.9407266825437546e-03</internalNodes>
          <leafValues>
            5.1681482791900635e-01 -8.1598061323165894e-01</leafValues></_>
        <_>
          <internalNodes>
            0 -1 43 2.9802077915519476e-03</internalNodes>
          <leafValues>
            -7.8793710470199585e-01 3.5946735739707947e-01</leafValues></_>
        <_>
          <internalNodes>
            0 -1 28 -6.8212170153856277e-03</internalNodes>
          <leafValues>
            6.6634267568588257e-01 -3.6108347773551941e-01</leafValues></_>
        <_>
          <internalNodes>
            0 -1 25 -9.3154106289148331e-03</internalNodes>
          <leafValues>
            7.5874799489974976e-01 -2.8385674953460693e-01</leafValues></_>
        <_>
          <internalNodes>
            0 -1 55 8.1512853503227234e-03</internalNodes>
          <leafValues>
            -3.7249180674552917e-01 5.3809779882431030e-01</leafValues></_>
        <_>
          <internalNodes>
            0 -1 53 1.2151867151260376e-02</internalNodes>
          <leafValues>
            2.3569454252719879e-01 -8.8383513689041138e-01</leafValues></_>
        <_>
          <internalNodes>
            0 -1 54 5.5483011528849602e-03</internalNodes>
          <leafValues>
            -8.7462657690048218e-01 2.1812036633491516e-01</leafValues></_></weakClassifiers></_>
    <!-- stage 11 -->
    <_>
      <maxWeakCount>7</maxWeakCount>
      <stageThreshold>-7.8971904516220093e-01</stageThreshold>
      <weakClassifiers>
        <_>
          <internalNodes>
            0 -1 70 -5.2011595107614994e-04</internalNodes>
          <leafValues>
            -6.5120595693588257e-01 5.4896384477615356e-01</leafValues></_>
        <_>
          <internalNodes>
            0 -1 33 -5.2859741117572412e-05</internalNodes>
          <leafValues>
            2.9265490174293518e-01 -8.0035263299942017e-01</leafValues></_>
        <_>
          <internalNodes>
            0 -1 41 -8.1546045839786530e-03</internalNodes>
          <leafValues>
            -9.4676953554153442e-01 2.0355936884880066e-01</leafValues></_>
        <_>
          <internalNodes>
            0 -1 64 9.6538765355944633e-03</internalNodes>
          <leafValues>
            -3.5039815306663513e-01 7.0554476976394653e-01</leafValues></_>
        <_>
          <internalNodes>
            0 -1 5 -3.4303739666938782e-02</internalNodes>
          <leafValues>
            7.4441885948181152e-01 -2.6739037036895752e-01</leafValues></_>
        <_>
          <internalNodes>
            0 -1 50 -6.8132503656670451e-05</internalNodes>
          <leafValues>
            -4.9454215168952942e-01 4.2189109325408936e-01</leafValues></_>
        <_>
          <internalNodes>
            0 -1 67 8.2745542749762535e-04</internalNodes>
          <leafValues>
            -4.5386302471160889e-01 4.7760331630706787e-01</leafValues></_></weakClassifiers></_>
    <!-- stage 12 -->
    <_>
      <maxWeakCount>8</maxWeakCount>
      <stageThreshold>-7.6006698608398438e-01</stageThreshold>
      <weakClassifiers>
        <_>
          <internalNodes>
            0 -1 23 3.9448158349841833e-04</internalNodes>
          <leafValues>
            -7.1259844303131104e-01 5.4654896259307861e-01</leafValues></_>
        <_>
          <internalNodes>
            0 -1 71 -6.6942872945219278e-04</internalNodes>
          <leafValues>
            2.7262064814567566e-01 -8.2356619834899902e-01</leafValues></_>
        <_>
          <internalNodes>
            0 -1 29 9.8330955952405930e-03</internalNodes>
          <leafValues>
            -3.1938976049423218e-01 6.4974230527877808e-01</leafValues></_>
        <_>
          <internalNodes>
            0 -1 46 6.7568765953183174e-03</internalNodes>
          <leafValues>
            -3.6920338869094849e-01 7.1329224109649658e-01</leafValues></_>
        <_>
          <internalNodes>
            0 -1 68 -1.6567406710237265e-03</internalNodes>
          <leafValues>
            -8.8072443008422852e-01 2.6324796676635742e-01</leafValues></_>
        <_>
          <internalNodes>
            0 -1 66 7.2869341820478439e-03</internalNodes>
          <leafValues>
            1.8233068287372589e-01 -9.0846431255340576e-01</leafValues></_>
        <_>
          <internalNodes>
            0 -1 72 -2.2342000156641006e-03</internalNodes>
          <leafValues>
            5.5283659696578979e-01 -3.6648204922676086e-01</leafValues></_>
        <_>
          <internalNodes>
            0 -1 0 -7.7727534808218479e-03</internalNodes>
          <leafValues>
            3.0128714442253113e-01 -6.3226222991943359e-01</leafValues></_></weakClassifiers></_>
    <!-- stage 13 -->
    <_>
      <maxWeakCount>7</maxWeakCount>
      <stageThreshold>-5.2247810363769531e-01</stageThreshold>
      <weakClassifiers>
        <_>
          <internalNodes>
            0 -1 59 -1.2012417428195477e-03</internalNodes>
          <leafValues>
            4.9340370297431946e-01 -8.9048993587493896e-01</leafValues></_>
        <_>
          <internalNodes>
            0 -1 69 5.3946552798151970e-03</internalNodes>
          <leafValues>
            -5.6443732976913452e-01 3.5304951667785645e-01</leafValues></_>
        <_>
          <internalNodes>
            0 -1 61 2.0363323390483856e-02</internalNodes>
          <leafValues>
            2.8035309910774231e-01 -7.8935635089874268e-01</leafValues></_>
        <_>
          <internalNodes>
            0 -1 65 -5.1240844186395407e-04</internalNodes>
          <leafValues>
            1.9928780198097229e-01 -8.9782059192657471e-01</leafValues></_>
        <_>
          <internalNodes>
            0 -1 7 -7.2553828358650208e-03</internalNodes>
          <leafValues>
            1.8739707767963409e-01 -7.5579220056533813e-01</leafValues></_>
        <_>
          <internalNodes>
            0 -1 9 2.5494424626231194e-03</internalNodes>
          <leafValues>
            -9.5816069841384888e-01 1.6972205042839050e-01</leafValues></_>
        <_>
          <internalNodes>
            0 -1 15 3.9376646280288696e-02</internalNodes>
          <leafValues>
            2.4791173636913300e-01 -7.9951971769332886e-01</leafValues></_></weakClassifiers></_></stages>
  <features>
    <_>
      <rects>
        <_>
          2 10 6 4 -1.</_>
        <_>
          2 10 3 2 2.</_>
        <_>
          5 12 3 2 2.</_></rects>
      <tilted>0</tilted></_>
    <_>
      <rects>
        <_>
          3 5 4 8 -1.</_>
        <_>
          5 5 2 8 2.</_></rects>
      <tilted>0</tilted></_>
    <_>
      <rects>
        <_>
          3 10 4 2 -1.</_>
        <_>
          5 10 2 2 2.</_></rects>
      <tilted>0</tilted></_>
    <_>
      <rects>
        <_>
          3 10 6 3 -1.</_>
        <_>
          6 10 3 3 2.</_></rects>
      <tilted>0</tilted></_>
    <_>
      <rects>
        <_>
          3 10 12 3 -1.</_>
        <_>
          7 10 4 3 3.</_></rects>
      <tilted>0</tilted></_>
    <_>
      <rects>
        <_>
          3 16 12 4 -1.</_>
        <_>
          3 18 12 2 2.</_></rects>
      <tilted>0</tilted></_>
    <_>
      <rects>
        <_>
          4 5 14 10 -1.</_>
        <_>
          4 10 14 5 2.</_></rects>
      <tilted>0</tilted></_>
    <_>
      <rects>
        <_>
          4 10 4 6 -1.</_>
        <_>
          4 10 2 3 2.</_>
        <_>
          6 13 2 3 2.</_></rects>
      <tilted>0</tilted></_>
    <_>
      <rects>
        <_>
          4 13 12 2 -1.</_>
        <_>
          8 13 4 2 3.</_></rects>
      <tilted>0</tilted></_>
    <_>
      <rects>
        <_>
          4 14 10 1 -1.</_>
        <_>
          9 14 5 1 2.</_></rects>
      <tilted>0</tilted></_>
    <_>
      <rects>
        <_>
          5 11 8 6 -1.</_>
        <_>
          5 13 8 2 3.</_></rects>
      <tilted>0</tilted></_>
    <_>
      <rects>
        <_>
          5 13 8 3 -1.</_>
        <_>
          9 13 4 3 2.</_></rects>
      <tilted>0</tilted></_>
    <_>
      <rects>
        <_>
          6 2 5 3 -1.</_>
        <_>
          6 3 5 1 3.</_></rects>
      <tilted>0</tilted></_>
    <_>
      <rects>
        <_>
          6 5 9 10 -1.</_>
        <_>
          6 10 9 5 2.</_></rects>
      <tilted>0</tilted></_>
    <_>
      <rects>
        <_>
          6 8 10 10 -1.</_>
        <_>
          6 13 10 5 2.</_></rects>
      <tilted>0</tilted></_>
    <_>
      <rects>
        <_>
          6 9 8 9 -1.</_>
        <_>
          10 9 4 9 2.</_></rects>
      <tilted>0</tilted></_>
    <_>
      <rects>
        <_>
          6 11 6 5 -1.</_>
        <_>
          8 11 2 5 3.</_></rects>
      <tilted>0</tilted></_>
    <_>
      <rects>
        <_>
          6 11 8 6 -1.</_>
        <_>
          6 13 8 2 3.</_></rects>
      <tilted>0</tilted></_>
    <_>
      <rects>
        <_>
          6 12 2 4 -1.</_>
        <_>
          7 12 1 4 2.</_></rects>
      <tilted>0</tilted></_>
    <_>
      <rects>
        <_>
          7 3 8 12 -1.</_>
        <_>
          7 9 8 6 2.</_></rects>
      <tilted>0</tilted></_>
    <_>
      <rects>
        <_>
          7 5 4 12 -1.</_>
        <_>
          7 9 4 4 3.</_></rects>
      <tilted>0</tilted></_>
    <_>
      <rects>
        <_>
          7 10 4 3 -1.</_>
        <_>
          7 11 4 1 3.</_></rects>
      <tilted>0</tilted></_>
    <_>
      <rects>
        <_>
          7 13 2 3 -1.</_>
        <_>
          8 13 1 3 2.</_></rects>
      <tilted>0</tilted></_>
    <_>
      <rects>
        <_>
          7 14 2 3 -1.</_>
        <_>
          8 14 1 3 2.</_></rects>
      <tilted>0</tilted></_>
    <_>
      <rects>
        <_>
          7 15 6 2 -1.</_>
        <_>
          10 15 3 2 2.</_></rects>
      <tilted>0</tilted></_>
    <_>
      <rects>
        <_>
          7 18 8 2 -1.</_>
        <_>
          7 19 8 1 2.</_></rects>
      <tilted>0</tilted></_>
    <_>
      <rects>
        <_>
          8 5 8 11 -1.</_>
        <_>
          12 5 4 11 2.</_></rects>
      <tilted>0</tilted></_>
    <_>
      <rects>
        <_>
          8 7 3 6 -1.</_>
        <_>
          8 9 3 2 3.</_></rects>
      <tilted>0</tilted></_>
    <_>
      <rects>
        <_>
          8 8 2 3 -1.</_>
        <_>
          8 9 2 1 3.</_></rects>
      <tilted>0</tilted></_>
    <_>
      <rects>
        <_>
          8 9 3 3 -1.</_>
        <_>
          8 10 3 1 3.</_></rects>
      <tilted>0</tilted></_>
    <_>
      <rects>
        <_>
          8 9 6 6 -1.</_>
        <_>
          11 9 3 6 2.</_></rects>
      <tilted>0</tilted></_>
    <_>
      <rects>
        <_>
          8 9 10 4 -1.</_>
        <_>
          13 9 5 4 2.</_></rects>
      <tilted>0</tilted></_>
    <_>
      <rects>
        <_>
          8 10 2 3 -1.</_>
        <_>
          8 11 2 1 3.</_></rects>
      <tilted>0</tilted></_>
    <_>
      <rects>
        <_>
          8 11 1 6 -1.</_>
        <_>
          8 13 1 2 3.</_></rects>
      <tilted>0</tilted></_>
    <_>
      <rects>
        <_>
          8 11 4 3 -1.</_>
        <_>
          8 12 4 1 3.</_></rects>
      <tilted>0</tilted></_>
    <_>
      <rects>
        <_>
          8 13 4 4 -1.</_>
        <_>
          8 13 2 2 2.</_>
        <_>
          10 15 2 2 2.</_></rects>
      <tilted>0</tilted></_>
    <_>
      <rects>
        <_>
          8 15 2 2 -1.</_>
        <_>
          9 15 1 2 2.</_></rects>
      <tilted>0</tilted></_>
    <_>
      <rects>
        <_>
          8 15 4 2 -1.</_>
        <_>
          10 15 2 2 2.</_></rects>
      <tilted>0</tilted></_>
    <_>
      <rects>
        <_>
          9 3 6 13 -1.</_>
        <_>
          12 3 3 13 2.</_></rects>
      <tilted>0</tilted></_>
    <_>
      <rects>
        <_>
          9 3 6 8 -1.</_>
        <_>
          9 7 6 4 2.</_></rects>
      <tilted>0</tilted></_>
    <_>
      <rects>
        <_>
          9 4 6 2 -1.</_>
        <_>
          9 4 3 1 2.</_>
        <_>
          12 5 3 1 2.</_></rects>
      <tilted>0</tilted></_>
    <_>
      <rects>
        <_>
          9 5 4 11 -1.</_>
        <_>
          11 5 2 11 2.</_></rects>
      <tilted>0</tilted></_>
    <_>
      <rects>
        <_>
          9 5 9 4 -1.</_>
        <_>
          12 5 3 4 3.</_></rects>
      <tilted>0</tilted></_>
    <_>
      <rects>
        <_>
          9 5 9 8 -1.</_>
        <_>
          12 5 3 8 3.</_></rects>
      <tilted>0</tilted></_>
    <_>
      <rects>
        <_>
          9 6 4 3 -1.</_>
        <_>
          9 7 4 1 3.</_></rects>
      <tilted>0</tilted></_>
    <_>
      <rects>
        <_>
          9 7 1 6 -1.</_>
        <_>
          9 10 1 3 2.</_></rects>
      <tilted>0</tilted></_>
    <_>
      <rects>
        <_>
          9 10 2 2 -1.</_>
        <_>
          9 11 2 1 2.</_></rects>
      <tilted>0</tilted></_>
    <_>
      <rects>
        <_>
          9 10 4 6 -1.</_>
        <_>
          11 10 2 6 2.</_></rects>
      <tilted>0</tilted></_>
    <_>
      <rects>
        <_>
          9 11 1 6 -1.</_>
        <_>
          9 13 1 2 3.</_></rects>
      <tilted>0</tilted></_>
    <_>
      <rects>
        <_>
          9 14 6 3 -1.</_>
        <_>
          12 14 3 3 2.</_></rects>
      <tilted>0</tilted></_>
    <_>
      <rects>
        <_>
          9 16 4 2 -1.</_>
        <_>
          9 17 4 1 2.</_></rects>
      <tilted>0</tilted></_>
    <_>
      <rects>
        <_>
          10 3 4 12 -1.</_>
        <_>
          12 3 2 12 2.</_></rects>
      <tilted>0</tilted></_>
    <_>
      <rects>
        <_>
          10 3 4 12 -1.</_>
        <_>
          10 9 4 6 2.</_></rects>
      <tilted>0</tilted></_>
    <_>
      <rects>
        <_>
          10 4 1 8 -1.</_>
        <_>
          10 8 1 4 2.</_></rects>
      <tilted>0</tilted></_>
    <_>
      <rects>
        <_>
          10 5 2 12 -1.</_>
        <_>
          10 9 2 4 3.</_></rects>
      <tilted>0</tilted></_>
    <_>
      <rects>
        <_>
          10 6 7 2 -1.</_>
        <_>
          10 7 7 1 2.</_></rects>
      <tilted>0</tilted></_>
    <_>
      <rects>
        <_>
          10 7 6 8 -1.</_>
        <_>
          12 7 2 8 3.</_></rects>
      <tilted>0</tilted></_>
    <_>
      <rects>
        <_>
          10 8 2 2 -1.</_>
        <_>
          10 9 2 1 2.</_></rects>
      <tilted>0</tilted></_>
    <_>
      <rects>
        <_>
          10 8 3 2 -1.</_>
        <_>
          10 9 3 1 2.</_></rects>
      <tilted>0</tilted></_>
    <_>
      <rects>
        <_>
          10 9 1 8 -1.</_>
        <_>
          10 13 1 4 2.</_></rects>
      <tilted>0</tilted></_>
    <_>
      <rects>
        <_>
          10 13 4 4 -1.</_>
        <_>
          10 15 4 2 2.</_></rects>
      <tilted>0</tilted></_>
    <_>
      <rects>
        <_>
          11 3 2 12 -1.</_>
        <_>
          11 7 2 4 3.</_></rects>
      <tilted>0</tilted></_>
    <_>
      <rects>
        <_>
          11 5 5 12 -1.</_>
        <_>
          11 11 5 6 2.</_></rects>
      <tilted>0</tilted></_>
    <_>
      <rects>
        <_>
          11 8 2 2 -1.</_>
        <_>
          11 9 2 1 2.</_></rects>
      <tilted>0</tilted></_>
    <_>
      <rects>
        <_>
          11 10 3 3 -1.</_>
        <_>
          11 11 3 1 3.</_></rects>
      <tilted>0</tilted></_>
    <_>
      <rects>
        <_>
          12 6 6 3 -1.</_>
        <_>
          15 6 3 3 2.</_></rects>
      <tilted>0</tilted></_>
    <_>
      <rects>
        <_>
          12 13 4 4 -1.</_>
        <_>
          12 15 4 2 2.</_></rects>
      <tilted>0</tilted></_>
    <_>
      <rects>
        <_>
          13 8 2 3 -1.</_>
        <_>
          13 9 2 1 3.</_></rects>
      <tilted>0</tilted></_>
    <_>
      <rects>
        <_>
          13 14 2 2 -1.</_>
        <_>
          13 15 2 1 2.</_></rects>
      <tilted>0</tilted></_>
    <_>
      <rects>
        <_>
          14 4 3 4 -1.</_>
        <_>
          14 6 3 2 2.</_></rects>
      <tilted>0</tilted></_>
    <_>
      <rects>
        <_>
          14 13 2 2 -1.</_>
        <_>
          14 14 2 1 2.</_></rects>
      <tilted>0</tilted></_>
    <_>
      <rects>
        <_>
          15 6 2 2 -1.</_>
        <_>
          16 6 1 2 2.</_></rects>
      <tilted>0</tilted></_>
    <_>
      <rects>
        <_>
          17 7 2 4 -1.</_>
        <_>
          17 7 1 2 2.</_>
        <_>
          18 9 1 2 2.</_></rects>
      <tilted>0</tilted></_>
    <_>
      <rects>
        <_>
          18 7 2 10 -1.</_>
        <_>
          19 7 1 10 2.</_></rects>
      <tilted>0</tilted></_>
    <_>
      <rects>
        <_>
          18 8 2 7 -1.</_>
        <_>
          19 8 1 7 2.</_></rects>
      <tilted>0</tilted></_></features></cascade>
</opencv_storage>
