<?xml version="1.0"?>
<opencv_storage>
<stage6>
  <maxWeakCount>5</maxWeakCount>
  <stageThreshold>-1.5597611665725708e-01</stageThreshold>
  <weakClassifiers>
    <_>
      <internalNodes>
        0 -1 44303 2.1335287601687014e-04</internalNodes>
      <leafValues>
        -9.6049380302429199e-01 5.3526014089584351e-01</leafValues></_>
    <_>
      <internalNodes>
        0 -1 61102 -3.2150724437087774e-03</internalNodes>
      <leafValues>
        6.2966817617416382e-01 -4.3875554203987122e-01</leafValues></_>
    <_>
      <internalNodes>
        0 -1 42479 -1.1330253910273314e-03</internalNodes>
      <leafValues>
        -8.5754466056823730e-01 3.2814040780067444e-01</leafValues></_>
    <_>
      <internalNodes>
        0 -1 64050 3.2097175717353821e-02</internalNodes>
      <leafValues>
        2.1340896189212799e-01 -9.5103311538696289e-01</leafValues></_>
    <_>
      <internalNodes>
        0 -1 56781 1.1042699217796326e-02</internalNodes>
      <leafValues>
        -3.7801659107208252e-01 7.0172387361526489e-01</leafValues></_></weakClassifiers></stage6>
</opencv_storage>
