<?xml version="1.0"?>
<opencv_storage>
<stage13>
  <maxWeakCount>7</maxWeakCount>
  <stageThreshold>-5.2247810363769531e-01</stageThreshold>
  <weakClassifiers>
    <_>
      <internalNodes>
        0 -1 61263 -1.2012417428195477e-03</internalNodes>
      <leafValues>
        4.9340370297431946e-01 -8.9048993587493896e-01</leafValues></_>
    <_>
      <internalNodes>
        0 -1 72140 5.3946552798151970e-03</internalNodes>
      <leafValues>
        -5.6443732976913452e-01 3.5304951667785645e-01</leafValues></_>
    <_>
      <internalNodes>
        0 -1 63403 2.0363323390483856e-02</internalNodes>
      <leafValues>
        2.8035309910774231e-01 -7.8935635089874268e-01</leafValues></_>
    <_>
      <internalNodes>
        0 -1 67348 -5.1240844186395407e-04</internalNodes>
      <leafValues>
        1.9928780198097229e-01 -8.9782059192657471e-01</leafValues></_>
    <_>
      <internalNodes>
        0 -1 32682 -7.2553828358650208e-03</internalNodes>
      <leafValues>
        1.8739707767963409e-01 -7.5579220056533813e-01</leafValues></_>
    <_>
      <internalNodes>
        0 -1 33701 2.5494424626231194e-03</internalNodes>
      <leafValues>
        -9.5816069841384888e-01 1.6972205042839050e-01</leafValues></_>
    <_>
      <internalNodes>
        0 -1 43673 3.9376646280288696e-02</internalNodes>
      <leafValues>
        2.4791173636913300e-01 -7.9951971769332886e-01</leafValues></_></weakClassifiers></stage13>
</opencv_storage>
