<?xml version="1.0"?>
<opencv_storage>
<stage10>
  <maxWeakCount>7</maxWeakCount>
  <stageThreshold>-8.3473938703536987e-01</stageThreshold>
  <weakClassifiers>
    <_>
      <internalNodes>
        0 -1 60860 9.9407266825437546e-03</internalNodes>
      <leafValues>
        5.1681482791900635e-01 -8.1598061323165894e-01</leafValues></_>
    <_>
      <internalNodes>
        0 -1 56486 2.9802077915519476e-03</internalNodes>
      <leafValues>
        -7.8793710470199585e-01 3.5946735739707947e-01</leafValues></_>
    <_>
      <internalNodes>
        0 -1 52973 -6.8212170153856277e-03</internalNodes>
      <leafValues>
        6.6634267568588257e-01 -3.6108347773551941e-01</leafValues></_>
    <_>
      <internalNodes>
        0 -1 49950 -9.3154106289148331e-03</internalNodes>
      <leafValues>
        7.5874799489974976e-01 -2.8385674953460693e-01</leafValues></_>
    <_>
      <internalNodes>
        0 -1 60743 8.1512853503227234e-03</internalNodes>
      <leafValues>
        -3.7249180674552917e-01 5.3809779882431030e-01</leafValues></_>
    <_>
      <internalNodes>
        0 -1 59973 1.2151867151260376e-02</internalNodes>
      <leafValues>
        2.3569454252719879e-01 -8.8383513689041138e-01</leafValues></_>
    <_>
      <internalNodes>
        0 -1 60322 5.5483011528849602e-03</internalNodes>
      <leafValues>
        -8.7462657690048218e-01 2.1812036633491516e-01</leafValues></_></weakClassifiers></stage10>
</opencv_storage>
