<?xml version="1.0"?>
<opencv_storage>
<stage2>
  <maxWeakCount>5</maxWeakCount>
  <stageThreshold>-8.0294442176818848e-01</stageThreshold>
  <weakClassifiers>
    <_>
      <internalNodes>
        0 -1 56469 9.3664610758423805e-03</internalNodes>
      <leafValues>
        -7.3099416494369507e-01 6.4766842126846313e-01</leafValues></_>
    <_>
      <internalNodes>
        0 -1 26568 3.6087237298488617e-02</internalNodes>
      <leafValues>
        -8.3202570676803589e-01 4.4697126746177673e-01</leafValues></_>
    <_>
      <internalNodes>
        0 -1 53478 8.0365706235170364e-03</internalNodes>
      <leafValues>
        -3.7006804347038269e-01 7.7525943517684937e-01</leafValues></_>
    <_>
      <internalNodes>
        0 -1 46802 9.6559757366776466e-03</internalNodes>
      <leafValues>
        -9.3614524602890015e-01 3.1674912571907043e-01</leafValues></_>
    <_>
      <internalNodes>
        0 -1 64571 -3.1820381991565228e-03</internalNodes>
      <leafValues>
        6.9852244853973389e-01 -4.6560263633728027e-01</leafValues></_></weakClassifiers></stage2>
</opencv_storage>
